elements: [Fe, Na, O, P]
E0: [0, 0, 0, 0]
deltaSplineBins: 0.001
embeddings:
  0: {ndensity: 8, FS_parameters: [1, 1, 1, 0.5, 1, 0.75, 1, 0.25, 1, 0.125, 1, 0.375, 1, 0.875, 1, 2], npoti: FinnisSinclairShiftedScaled, rho_core_cutoff: 1, drho_core_cutoff: 1}
  1: {ndensity: 8, FS_parameters: [1, 1, 1, 0.5, 1, 0.75, 1, 0.25, 1, 0.125, 1, 0.375, 1, 0.875, 1, 2], npoti: FinnisSinclairShiftedScaled, rho_core_cutoff: 1, drho_core_cutoff: 1}
  2: {ndensity: 8, FS_parameters: [1, 1, 1, 0.5, 1, 0.75, 1, 0.25, 1, 0.125, 1, 0.375, 1, 0.875, 1, 2], npoti: FinnisSinclairShiftedScaled, rho_core_cutoff: 1, drho_core_cutoff: 1}
  3: {ndensity: 8, FS_parameters: [1, 1, 1, 0.5, 1, 0.75, 1, 0.25, 1, 0.125, 1, 0.375, 1, 0.875, 1, 2], npoti: FinnisSinclairShiftedScaled, rho_core_cutoff: 1, drho_core_cutoff: 1}
bonds:
  [0, 0]: {nradmax: 3, lmax: 3, nradbasemax: 9, radbasename: SBessel, radparameters: [5.25], radcoefficients: [[[1.2270326619203371, -1.2712330862833114, 1.0243538529010725, -0.65664100498455213, 0.39902957717252524, -0.21597130660082173, 0.095336166509331785, -0.040185526124661433, 0.023520352307949934], [1.7635342324926013, -1.8912140967292381, 1.5435019281225921, -1.1677346291626067, 0.83809376323340934, -0.51741100954287544, 0.30573860075242876, -0.13602733676279186, 0.046872719778664015], [0.41354226954424, -0.44136499377937005, -0.067300010809078437, -0.20006889487970722, -0.69897239402974587, 0.72749941660827688, 0.060147221446861202, -0.21965298391875063, 0.013937556457806893], [1.1230231933513548, 0.065114005222497967, -0.01852163629558207, -0.29141796994751673, 0.085188475231525451, 0.30920397605137445, -0.084528486287607396, 0.05505399911715371, -0.16245184804054486]], [[0.64411164297702972, 0.16064418668713445, -0.42751859385120755, 0.57080373683577246, -0.3789340929737991, 0.22910167723870109, -0.089344008011271792, 0.038429218198396356, -0.009884304708649443], [-1.3348845807967116, -0.34046356543072148, 1.0841802206365714, -1.5968421930018197, 1.045090996062741, -0.49672724656905304, 0.1233879106684191, -0.11258474099800098, -0.016352096215811875], [-0.54169214736844395, 0.24257491721415031, -0.37362323740289716, 0.24088093550207471, -0.26277320594653281, -1.2160310013432365, -0.23188884440256449, 0.23609261438474063, -0.18188991284032627], [0, 1, 0, 0, 0, 0, 0, 0, 0]], [[-0.095193279234888448, 0.016075362110938317, 0.75197542353211577, -0.81418355389914832, 0.80446662236827426, -0.36783422354432987, 0.06903225128951436, 0.060381857290693487, -0.044805003450318015], [-0.50197381897756621, -0.56938627780621054, 0.66419820864170509, -0.56338351121983044, -0.086897546858624913, 1.1221195089367826, -0.33473579249550434, -0.33603631279478302, 0.28985570790731663], [0, 0, 1, 0, 0, 0, 0, 0, 0], [0, 0, 1, 0, 0, 0, 0, 0, 0]]], prehc: 1, lambdahc: 1, rcut: 6.5, dcut: 0.01, rcut_in: 1.2310022322111351, dcut_in: 0.10000000000000001, inner_cutoff_type: zbl}
  [0, 1]: {nradmax: 3, lmax: 2, nradbasemax: 6, radbasename: SBessel, radparameters: [5.25], radcoefficients: [[[0.65847859075013293, -0.56800437553535843, 0.4080711247507508, -0.24671510603985344, 0.13098682382451929, -0.049830710706450815], [1.251532757803447, -1.0534315133418284, 0.76027589545267271, -0.48969864913061062, 0.34480471148026925, -0.13330950208286249], [0.54069368961841491, 0.10933498182434707, -0.62340392258324784, 0.63750554479523402, -0.28397784422262284, 0.14571042377113413]], [[-0.9397567918835571, 1.2315757815187649, -0.96721697150130503, 0.65347366339785029, -0.33393327674290868, 0.15014856632620302], [-0.21079858053617487, 0.57370174186910805, 0.24161287850296786, -0.85116959167130857, 0.99082312399656558, -0.28702165046693939], [0, 1, 0, 0, 0, 0]], [[0.87145481890002774, 0.074945071831317406, -0.11447706988828463, 0.15320582764612509, -0.046713335322661094, 0.049077335728516337], [0.1304839651956845, -0.040901814879689344, 1.1683675498595911, 0.12542532472243456, -0.089150126225643819, 0.1313196396140574], [0, 0, 1, 0, 0, 0]]], prehc: 1, lambdahc: 1, rcut: 6.5, dcut: 0.01, rcut_in: 1.0902922266264137, dcut_in: 0.10000000000000001, inner_cutoff_type: zbl}
  [0, 2]: {nradmax: 3, lmax: 2, nradbasemax: 6, radbasename: SBessel, radparameters: [5.25], radcoefficients: [[[1.1712179112125607, -1.2244502009378255, 1.0162682608569853, -0.68992928606549442, 0.36865017887618257, -0.15857033775611601], [0.64535810324100862, -0.7738599134696077, 0.72353438959285754, -0.55705002641456747, 0.32651833435179545, -0.14627164637751677], [1.1021566221565346, -1.0215703422491385, 0.6634584286276165, -0.37813351958961755, 0.16004978480392246, -0.038687107055608072]], [[0.50928531684189782, -0.086299941984116835, -0.27609340646013647, 0.44888694989322714, -0.34596160894921163, 0.1412085718673636], [-1.655616399229799, 1.243589344027906, -0.55190882024769028, -0.17766184268526833, 0.37716549269628113, -0.3514706889928691], [0, 1, 0, 0, 0, 0]], [[-0.24601138859683314, -0.01536325647579301, 0.076119343180733295, -0.0088544672766783811, -0.089712331784737018, 0.1323810209671446], [-0.28166773786147403, -0.42031365127310205, 0.97367886244251378, -0.12858291624529339, -0.49466997349519337, 0.50055537912072179], [0, 0, 1, 0, 0, 0]]], prehc: 1, lambdahc: 1, rcut: 6.5, dcut: 0.01, rcut_in: 1.0302296598100915, dcut_in: 0.10000000000000001, inner_cutoff_type: zbl}
  [0, 3]: {nradmax: 3, lmax: 2, nradbasemax: 6, radbasename: SBessel, radparameters: [5.25], radcoefficients: [[[0.59341240970454823, -0.49845831020039827, 0.36745247221713301, -0.19112836796441404, 0.091696001590481815, -0.027910069008276129], [1.0133345919218202, -0.98354528572535216, 0.70598197090618831, -0.40789604976916949, 0.21920114367343735, -0.068003443338741851], [1.6858233764759876, -1.1718423537010152, 0.28495206374051441, 0.33377045239555098, -0.35605164420705671, 0.17791439639992157]], [[-0.88272229875898933, 0.5309329355270993, -0.24782705955503437, -0.0065146806509764317, 0.071089191584240971, -0.053224904472238113], [-1.4620095287590598, 0.2637438823098962, 0.63202391765609411, -1.1740185636157627, 0.89561438744794164, -0.39166408524286506], [0, 1, 0, 0, 0, 0]], [[1.2905724858821461, -0.9122178859236969, 0.51281446291866417, -0.16332476431450332, 0.023267339513389489, 0.020561812410213483], [-0.44911323075977666, -0.52896587471252399, 0.89981021042389775, -0.093634105360714287, -0.78956248061497147, 0.43191106805123047], [0, 0, 1, 0, 0, 0]]], prehc: 1, lambdahc: 1, rcut: 6.5, dcut: 0.01, rcut_in: 1.0474125098546412, dcut_in: 0.10000000000000001, inner_cutoff_type: zbl}
  [1, 0]: {nradmax: 3, lmax: 2, nradbasemax: 6, radbasename: SBessel, radparameters: [5.25], radcoefficients: [[[0.65847859075013293, -0.56800437553535843, 0.4080711247507508, -0.24671510603985344, 0.13098682382451929, -0.049830710706450815], [1.251532757803447, -1.0534315133418284, 0.76027589545267271, -0.48969864913061062, 0.34480471148026925, -0.13330950208286249], [0.54069368961841491, 0.10933498182434707, -0.62340392258324784, 0.63750554479523402, -0.28397784422262284, 0.14571042377113413]], [[-0.9397567918835571, 1.2315757815187649, -0.96721697150130503, 0.65347366339785029, -0.33393327674290868, 0.15014856632620302], [-0.21079858053617487, 0.57370174186910805, 0.24161287850296786, -0.85116959167130857, 0.99082312399656558, -0.28702165046693939], [0, 1, 0, 0, 0, 0]], [[0.87145481890002774, 0.074945071831317406, -0.11447706988828463, 0.15320582764612509, -0.046713335322661094, 0.049077335728516337], [0.1304839651956845, -0.040901814879689344, 1.1683675498595911, 0.12542532472243456, -0.089150126225643819, 0.1313196396140574], [0, 0, 1, 0, 0, 0]]], prehc: 1, lambdahc: 1, rcut: 6.5, dcut: 0.01, rcut_in: 1.0902922266264137, dcut_in: 0.10000000000000001, inner_cutoff_type: zbl}
  [1, 1]: {nradmax: 3, lmax: 3, nradbasemax: 9, radbasename: SBessel, radparameters: [5.25], radcoefficients: [[[0.52673243250545487, -0.45836442597481808, 0.30826121413503682, -0.2283374238830638, 0.13897297467166106, -0.10254583914703438, 0.06654012715326979, -0.033285174183612119, 0.01124306335841789], [1.3772101163042463, -1.0213747277520169, 0.81624359993373652, -0.47681776528168168, 0.30754615014567044, -0.16201424299852102, 0.014888632768134735, 0.035084507696276489, -0.043020772908649134], [0.95338903777767925, -0.65651103975993252, 0.16627880560951325, 0.15752766481896299, -0.36137436622266284, 0.54794690431735771, -0.3947726887527081, 0.27681852038457977, -0.15739774529178577], [0.83111654679952085, -0.097750332477112248, -0.073518445046652781, 0.49662049909377481, 0.11737251161903316, -0.37856342773497476, -0.058008706208226124, -0.12964021943097748, 0.18661369767663719]], [[-0.086816052046683259, 0.78333880290670233, -0.85876471518705066, 0.83870764551965715, -0.64100512683524191, 0.50689804458072585, -0.31282045215413606, 0.17509931757177427, -0.064815886902668415], [-1.6247717784205404, 0.61940696578999344, -0.061049373494945811, -0.4968567389575011, 0.65906028919787618, -0.66839805010801567, 0.64511233407775659, -0.43487501043685939, 0.25231372242153832], [-0.57767146319940199, 0.50751785678287153, -0.14011068092361961, -0.18020099172130805, 0.0087517920270731037, 0.1747296586835119, -0.79091321672033099, 0.71653855052457782, -0.3051420362197596], [0, 1, 0, 0, 0, 0, 0, 0, 0]], [[0.88959483059024846, 0.086187038601601665, -0.1793476169013648, 0.22329504466783556, -0.19738205899819264, 0.22514552648623593, -0.15126459933335426, 0.10989304711410866, -0.042334890683778416], [-0.32661270172851486, -0.30102562220247675, 0.59680730102220847, -0.64716528345571078, 0.23007831098604334, 0.32070906862377802, -0.62446271140849341, 0.73776612398835117, -0.53142091955025972], [0, 0, 1, 0, 0, 0, 0, 0, 0], [0, 0, 1, 0, 0, 0, 0, 0, 0]]], prehc: 1, lambdahc: 1, rcut: 6.5, dcut: 0.01, rcut_in: 0.94624510128190353, dcut_in: 0.10000000000000001, inner_cutoff_type: zbl}
  [1, 2]: {nradmax: 3, lmax: 2, nradbasemax: 6, radbasename: SBessel, radparameters: [5.25], radcoefficients: [[[0.62069499805550998, -0.59185125137915362, 0.51050029934682717, -0.40422850176373815, 0.25950776745876192, -0.13238020153636709], [0.31350003583950165, -0.39331783387333724, 0.37998076729782715, -0.31430547408616072, 0.19795824840012358, -0.1014600997101939], [1.1243156206138458, -1.1836638090200684, 0.89902694878608935, -0.62463267823368207, 0.40077750537089496, -0.12572259779452621]], [[-0.41516481389494253, 0.13647670518682686, 0.049471810563091703, -0.097237501428341394, 0.058282718896566506, -0.0092236177481475386], [-0.95579490406100298, 0.54900198907508502, -0.0039894410823256201, -0.3179239432647013, 0.24294983139688836, -0.1885251392539164], [0, 1, 0, 0, 0, 0]], [[0.24264047175385381, -0.54626894804654191, 0.59479448069505159, -0.46349746941088033, 0.25109916186832804, -0.098709451074957183], [-0.28090094394763354, -0.53409401505033505, 0.86851007823742865, 0.30326363328984252, -0.66703949458200784, 0.32062369989472289], [0, 0, 1, 0, 0, 0]]], prehc: 1, lambdahc: 1, rcut: 6.5, dcut: 0.01, rcut_in: 0.89986518907000634, dcut_in: 0.10000000000000001, inner_cutoff_type: zbl}
  [1, 3]: {nradmax: 3, lmax: 2, nradbasemax: 6, radbasename: SBessel, radparameters: [5.25], radcoefficients: [[[1.0267637469878141, -0.89986155553394265, 0.63580744321758653, -0.33012546912587587, 0.13385243211969677, -0.043911043845398061], [0.70760924014100635, -0.59457586495822723, 0.32999880796157427, -0.19281322037107232, 0.092210801836554113, -0.012355887045732841], [1.2809686565978811, 0.095010770172651318, -0.46267762238346549, 0.4281511284436586, -0.36086422783887695, -0.045746258845419489]], [[-0.43729556616487913, 0.45783488358404889, -0.70079710832444686, 0.59822140435809568, -0.37073512667619957, 0.13043627388035098], [-1.2921801551580927, 0.47391917790593163, 0.44695915805400122, -0.47621334449596281, 0.26046966435440544, -0.15864232365002756], [0, 1, 0, 0, 0, 0]], [[1.775133805826558, -1.2810919231902274, 1.2904065777662503, -0.86656631795547845, 0.51671897931756128, -0.15665619822805471], [-0.1600858782188862, -0.097335333478883082, 0.92010212149100834, -0.098450545924959498, 0.22560077342191157, -0.5751658448361967], [0, 0, 1, 0, 0, 0]]], prehc: 1, lambdahc: 1, rcut: 6.5, dcut: 0.01, rcut_in: 0.91617289738345731, dcut_in: 0.10000000000000001, inner_cutoff_type: zbl}
  [2, 0]: {nradmax: 3, lmax: 2, nradbasemax: 6, radbasename: SBessel, radparameters: [5.25], radcoefficients: [[[1.1712179112125607, -1.2244502009378255, 1.0162682608569853, -0.68992928606549442, 0.36865017887618257, -0.15857033775611601], [0.64535810324100862, -0.7738599134696077, 0.72353438959285754, -0.55705002641456747, 0.32651833435179545, -0.14627164637751677], [1.1021566221565346, -1.0215703422491385, 0.6634584286276165, -0.37813351958961755, 0.16004978480392246, -0.038687107055608072]], [[0.50928531684189782, -0.086299941984116835, -0.27609340646013647, 0.44888694989322714, -0.34596160894921163, 0.1412085718673636], [-1.655616399229799, 1.243589344027906, -0.55190882024769028, -0.17766184268526833, 0.37716549269628113, -0.3514706889928691], [0, 1, 0, 0, 0, 0]], [[-0.24601138859683314, -0.01536325647579301, 0.076119343180733295, -0.0088544672766783811, -0.089712331784737018, 0.1323810209671446], [-0.28166773786147403, -0.42031365127310205, 0.97367886244251378, -0.12858291624529339, -0.49466997349519337, 0.50055537912072179], [0, 0, 1, 0, 0, 0]]], prehc: 1, lambdahc: 1, rcut: 6.5, dcut: 0.01, rcut_in: 1.0302296598100915, dcut_in: 0.10000000000000001, inner_cutoff_type: zbl}
  [2, 1]: {nradmax: 3, lmax: 2, nradbasemax: 6, radbasename: SBessel, radparameters: [5.25], radcoefficients: [[[0.62069499805550998, -0.59185125137915362, 0.51050029934682717, -0.40422850176373815, 0.25950776745876192, -0.13238020153636709], [0.31350003583950165, -0.39331783387333724, 0.37998076729782715, -0.31430547408616072, 0.19795824840012358, -0.1014600997101939], [1.1243156206138458, -1.1836638090200684, 0.89902694878608935, -0.62463267823368207, 0.40077750537089496, -0.12572259779452621]], [[-0.41516481389494253, 0.13647670518682686, 0.049471810563091703, -0.097237501428341394, 0.058282718896566506, -0.0092236177481475386], [-0.95579490406100298, 0.54900198907508502, -0.0039894410823256201, -0.3179239432647013, 0.24294983139688836, -0.1885251392539164], [0, 1, 0, 0, 0, 0]], [[0.24264047175385381, -0.54626894804654191, 0.59479448069505159, -0.46349746941088033, 0.25109916186832804, -0.098709451074957183], [-0.28090094394763354, -0.53409401505033505, 0.86851007823742865, 0.30326363328984252, -0.66703949458200784, 0.32062369989472289], [0, 0, 1, 0, 0, 0]]], prehc: 1, lambdahc: 1, rcut: 6.5, dcut: 0.01, rcut_in: 0.89986518907000634, dcut_in: 0.10000000000000001, inner_cutoff_type: zbl}
  [2, 2]: {nradmax: 3, lmax: 3, nradbasemax: 9, radbasename: SBessel, radparameters: [5.25], radcoefficients: [[[1.3348038533126447, -1.4712131835788058, 1.2353140938525864, -0.92752568740887043, 0.59915658384840609, -0.34314833488552554, 0.16559838959561637, -0.068064901361974656, 0.017008502063286416], [-1.1378255291775841, 0.13444135025582929, 1.0947704562253826, -1.8470007832779758, 1.8939813186145205, -1.3937516099103275, 0.86905339989213637, -0.48820113091263334, 0.22829632470212979], [2.3345093959488636, -2.3821746542972622, 1.6756343914323628, -0.78270490946510662, 0.062234915983113683, 0.35789140505798045, -0.4139385223514086, 0.27661359624503223, -0.14809870221947397], [0.33854142876803428, 0.20041278174947855, -0.57502963449106781, 0.80585347549907183, -0.81214598853535958, 0.6916529384664688, -0.51517464789313983, 0.3660965528262084, -0.18487393544072789]], [[-0.3816200614742305, 0.95996611672415011, -1.1418360749323473, 0.95234870701210161, -0.603341910355638, 0.30421735119608861, -0.13250637047529698, 0.055938770211727856, -0.016958710622804022], [-3.3142628897706436, 2.9357914401408158, -1.4590986211625969, 0.10162217294938375, 0.56637250261397554, -0.55108404006316425, 0.36807349464651257, -0.22773395135080762, 0.12470478512469005], [-2.0061360378817836, 2.6190157691487896, -2.516764598925052, 1.9998752235163444, -1.2724636935281712, 0.66494344632984981, -0.29984048574258443, 0.14581475978465278, -0.048592513535954035], [0, 1, 0, 0, 0, 0, 0, 0, 0]], [[0.82581967268748946, 0.075189261585584477, -1.0804044112852098, 1.5571830114121428, -1.5564851458375561, 1.1092056779042239, -0.60298628917260388, 0.24371309278851011, -0.066094468908620752], [0.35597115636247567, 0.56250097875287675, 0.58022637865598892, -0.78037212271572198, -0.01899569972366244, 0.9733074473684894, -1.589733610360704, 1.5610816895701287, -0.93715054194621361], [0, 0, 1, 0, 0, 0, 0, 0, 0], [0, 0, 1, 0, 0, 0, 0, 0, 0]]], prehc: 1, lambdahc: 1, rcut: 6.5, dcut: 0.01, rcut_in: 0.82338357135130635, dcut_in: 0.10000000000000001, inner_cutoff_type: zbl}
  [2, 3]: {nradmax: 3, lmax: 2, nradbasemax: 6, radbasename: SBessel, radparameters: [5.25], radcoefficients: [[[1.4884623138392665, -1.3758712959441757, 0.97094381507597016, -0.50489181784847603, 0.16631943585820377, -0.023289005265757161], [1.2149054996906359, -1.3220513634783975, 1.0595518684569853, -0.65536281378783867, 0.31073502294895833, -0.10509390523865646], [1.8855535468662679, -1.6907737114005721, 1.2788274503942867, -0.57635439095195307, 0.021982628864081175, -0.0063543051584815111]], [[-0.56232935865944222, 0.8212986746066917, -0.7864238626977994, 0.58630267274978798, -0.33270785013875548, 0.13427607933009639], [-1.6854273537156148, 0.73323891977770106, 0.18788394269037043, -0.95343784986894042, 0.96861892399531979, -0.56413037094688256], [0, 1, 0, 0, 0, 0]], [[0.1924451007634152, 0.016604393867213116, -0.202254681099201, 0.2926027271595199, -0.25524662877655052, 0.1441693854281276], [-0.96911785288286811, -1.2609345096893962, 0.94535854336123559, 0.60617903432799281, -0.0041613030620487462, 0.30756409563608761], [0, 0, 1, 0, 0, 0]]], prehc: 1, lambdahc: 1, rcut: 6.5, dcut: 0.01, rcut_in: 0.96791985226050625, dcut_in: 0.10000000000000001, inner_cutoff_type: zbl}
  [3, 0]: {nradmax: 3, lmax: 2, nradbasemax: 6, radbasename: SBessel, radparameters: [5.25], radcoefficients: [[[0.59341240970454823, -0.49845831020039827, 0.36745247221713301, -0.19112836796441404, 0.091696001590481815, -0.027910069008276129], [1.0133345919218202, -0.98354528572535216, 0.70598197090618831, -0.40789604976916949, 0.21920114367343735, -0.068003443338741851], [1.6858233764759876, -1.1718423537010152, 0.28495206374051441, 0.33377045239555098, -0.35605164420705671, 0.17791439639992157]], [[-0.88272229875898933, 0.5309329355270993, -0.24782705955503437, -0.0065146806509764317, 0.071089191584240971, -0.053224904472238113], [-1.4620095287590598, 0.2637438823098962, 0.63202391765609411, -1.1740185636157627, 0.89561438744794164, -0.39166408524286506], [0, 1, 0, 0, 0, 0]], [[1.2905724858821461, -0.9122178859236969, 0.51281446291866417, -0.16332476431450332, 0.023267339513389489, 0.020561812410213483], [-0.44911323075977666, -0.52896587471252399, 0.89981021042389775, -0.093634105360714287, -0.78956248061497147, 0.43191106805123047], [0, 0, 1, 0, 0, 0]]], prehc: 1, lambdahc: 1, rcut: 6.5, dcut: 0.01, rcut_in: 1.0474125098546412, dcut_in: 0.10000000000000001, inner_cutoff_type: zbl}
  [3, 1]: {nradmax: 3, lmax: 2, nradbasemax: 6, radbasename: SBessel, radparameters: [5.25], radcoefficients: [[[1.0267637469878141, -0.89986155553394265, 0.63580744321758653, -0.33012546912587587, 0.13385243211969677, -0.043911043845398061], [0.70760924014100635, -0.59457586495822723, 0.32999880796157427, -0.19281322037107232, 0.092210801836554113, -0.012355887045732841], [1.2809686565978811, 0.095010770172651318, -0.46267762238346549, 0.4281511284436586, -0.36086422783887695, -0.045746258845419489]], [[-0.43729556616487913, 0.45783488358404889, -0.70079710832444686, 0.59822140435809568, -0.37073512667619957, 0.13043627388035098], [-1.2921801551580927, 0.47391917790593163, 0.44695915805400122, -0.47621334449596281, 0.26046966435440544, -0.15864232365002756], [0, 1, 0, 0, 0, 0]], [[1.775133805826558, -1.2810919231902274, 1.2904065777662503, -0.86656631795547845, 0.51671897931756128, -0.15665619822805471], [-0.1600858782188862, -0.097335333478883082, 0.92010212149100834, -0.098450545924959498, 0.22560077342191157, -0.5751658448361967], [0, 0, 1, 0, 0, 0]]], prehc: 1, lambdahc: 1, rcut: 6.5, dcut: 0.01, rcut_in: 0.91617289738345731, dcut_in: 0.10000000000000001, inner_cutoff_type: zbl}
  [3, 2]: {nradmax: 3, lmax: 2, nradbasemax: 6, radbasename: SBessel, radparameters: [5.25], radcoefficients: [[[1.4884623138392665, -1.3758712959441757, 0.97094381507597016, -0.50489181784847603, 0.16631943585820377, -0.023289005265757161], [1.2149054996906359, -1.3220513634783975, 1.0595518684569853, -0.65536281378783867, 0.31073502294895833, -0.10509390523865646], [1.8855535468662679, -1.6907737114005721, 1.2788274503942867, -0.57635439095195307, 0.021982628864081175, -0.0063543051584815111]], [[-0.56232935865944222, 0.8212986746066917, -0.7864238626977994, 0.58630267274978798, -0.33270785013875548, 0.13427607933009639], [-1.6854273537156148, 0.73323891977770106, 0.18788394269037043, -0.95343784986894042, 0.96861892399531979, -0.56413037094688256], [0, 1, 0, 0, 0, 0]], [[0.1924451007634152, 0.016604393867213116, -0.202254681099201, 0.2926027271595199, -0.25524662877655052, 0.1441693854281276], [-0.96911785288286811, -1.2609345096893962, 0.94535854336123559, 0.60617903432799281, -0.0041613030620487462, 0.30756409563608761], [0, 0, 1, 0, 0, 0]]], prehc: 1, lambdahc: 1, rcut: 6.5, dcut: 0.01, rcut_in: 0.96791985226050625, dcut_in: 0.10000000000000001, inner_cutoff_type: zbl}
  [3, 3]: {nradmax: 3, lmax: 3, nradbasemax: 9, radbasename: SBessel, radparameters: [5.25], radcoefficients: [[[1.346307732353291, -1.1147575252558701, 0.89618686203654108, -0.53339809494863721, 0.3172202830770196, -0.21488867824603194, 0.17857295544122148, -0.085217777215015209, 0.0265950938469709], [1.7260447867945816, -2.1044783108473175, 1.8692011303920961, -1.4657385565230225, 1.1513699274427791, -0.87709345277181594, 0.60295150774080264, -0.35592500438328278, 0.13863960797495872], [1.0365486291675121, 0.59348148423418623, 0.44713852704710061, -0.080057674974891288, 0.51406220599422603, -0.32447710053597623, 0.49659724286083062, -0.15383480984118489, 0.13939198766384958], [0.77765499737603117, 0.19977346265560628, 0.17174458874067952, 0.12409836570865822, 0.44144566794419277, -0.038458059546392032, -0.066909638781546793, -0.037181751239086382, 0.16589797378704896]], [[-0.42203269829329232, 0.94999921039259105, -1.0262141865478516, 0.81757135219222754, -0.52144773031132752, 0.3221652932709409, -0.19855306765762118, 0.079725491932661596, -0.0084984320410514506], [-0.34005823753840903, 0.89154385992851759, -0.4520670757193388, -0.55378540234226492, 1.5024530771158988, -1.8130818199969485, 1.3710528415424568, -0.77448539108138781, 0.20224114410199173], [-0.34159499884665578, 0.94913356813418925, 0.74157769993833522, 0.57653990357803797, -0.0020008967888215188, 0.12669695519690399, 0.067140543319396992, 0.29609892684663225, 0.22079857332268246], [0, 1, 0, 0, 0, 0, 0, 0, 0]], [[3.2743312091265899, -0.30947711816327989, -0.60823995413921561, 1.3015179494991249, -1.0522289033592858, 0.56784958723718593, -0.13705089627272538, 0.012002830534219354, 0.033448871387905602], [-0.37666537948493883, 0.21172368609597222, 1.1884559184053047, -0.92367542110252299, 0.38011985580221991, 0.6237309076907297, -0.63025853376390673, 0.53125401591854737, -0.02763137818777639], [0, 0, 1, 0, 0, 0, 0, 0, 0], [0, 0, 1, 0, 0, 0, 0, 0, 0]]], prehc: 1, lambdahc: 1, rcut: 6.5, dcut: 0.01, rcut_in: 1.244844147433726, dcut_in: 0.10000000000000001, inner_cutoff_type: zbl}
functions:
  0:
    - {mu0: 0, rank: 1, ndensity: 8, num_ms_combs: 1, mus: [0], ns: [1], ls: [0], ms_combs: [0], ctildes: [1.4280471717903589, -0.086463243957953975, -0.38498878871361658, -2.2369764156273155, -1.0800357830973659, -0.807790696308338, 2.5846442055902656, -1.0417418442918351]}
    - {mu0: 0, rank: 1, ndensity: 8, num_ms_combs: 1, mus: [0], ns: [2], ls: [0], ms_combs: [0], ctildes: [-1.0317930154092518, -0.14602008748688722, -0.36357140362806295, -0.99856788243842354, 0.63384632698926013, -0.21464572394547113, -0.39951343577672493, 0.71960575240798907]}
    - {mu0: 0, rank: 1, ndensity: 8, num_ms_combs: 1, mus: [0], ns: [3], ls: [0], ms_combs: [0], ctildes: [-0.18110238670502016, -0.012840842561845266, 0.85059369011245778, 0.43423740903039548, 0.037827421745115615, 0.60968972313641245, 0.0059210315970171425, -0.4583094320047888]}
    - {mu0: 0, rank: 1, ndensity: 8, num_ms_combs: 1, mus: [0], ns: [4], ls: [0], ms_combs: [0], ctildes: [-0.17014496014032227, 0.075905445671668403, -0.25084837578116559, -1.52218784641783, -0.34688762469782169, -0.46994524132190363, 1.321808967259281, 0.19884166129048253]}
    - {mu0: 0, rank: 1, ndensity: 8, num_ms_combs: 1, mus: [0], ns: [5], ls: [0], ms_combs: [0], ctildes: [-0.070472120634160307, -0.2437671186183776, -0.37787566521369409, 0.85447351815707318, 0.39284214614649049, 0.011914259133750216, -0.24818855217799138, -0.16581873997933005]}
    - {mu0: 0, rank: 1, ndensity: 8, num_ms_combs: 1, mus: [0], ns: [6], ls: [0], ms_combs: [0], ctildes: [0.3230042216324302, 0.16527329694238077, 0.83058045051127738, -0.66217328185182123, -0.15340591713987328, 0.33923729980845113, -0.76941846027126581, 0.093175853351212312]}
    - {mu0: 0, rank: 1, ndensity: 8, num_ms_combs: 1, mus: [0], ns: [7], ls: [0], ms_combs: [0], ctildes: [-0.14896022815828852, -0.16614124190578258, -0.71497101633140647, 0.52576261941146851, -0.02941818978033936, -0.34653103534502921, 0.79767918341667354, -0.055908560904369201]}
    - {mu0: 0, rank: 1, ndensity: 8, num_ms_combs: 1, mus: [0], ns: [8], ls: [0], ms_combs: [0], ctildes: [0.01290324771008727, 0.048259270539235379, 0.3205024703684633, -0.61586181353464142, 0.075292020184271835, 0.21410321692223333, -0.26230359828966737, 0.025440277018803824]}
    - {mu0: 0, rank: 1, ndensity: 8, num_ms_combs: 1, mus: [0], ns: [9], ls: [0], ms_combs: [0], ctildes: [-0.078165773988961684, 0.012378059085809181, -0.10937262390104632, -0.041237192557487368, -0.009493288399172883, -0.12972870923849164, 0.22601565996228118, -0.020272607178469178]}
    - {mu0: 0, rank: 1, ndensity: 8, num_ms_combs: 1, mus: [1], ns: [1], ls: [0], ms_combs: [0], ctildes: [1.5571143856536143, -0.09523687588329996, 0.24903141605096699, -2.8596789533192122, -0.20388553860333367, -0.27431913213798381, 1.6624389358533391, -0.65132361295929397]}
    - {mu0: 0, rank: 1, ndensity: 8, num_ms_combs: 1, mus: [1], ns: [2], ls: [0], ms_combs: [0], ctildes: [-0.94139157257602657, -0.3842934166824889, -0.37092338683137971, 0.041727581236888869, -0.048040654526951498, -0.43308546789767977, -0.95012258484798251, 0.27560347292691922]}
    - {mu0: 0, rank: 1, ndensity: 8, num_ms_combs: 1, mus: [1], ns: [3], ls: [0], ms_combs: [0], ctildes: [0.10935680388154144, 0.26343435908837065, 0.4262726582353194, 0.16501812368334232, 0.17166536513002037, 0.22155333108190595, 0.69411895624555608, -0.014306639572433614]}
    - {mu0: 0, rank: 1, ndensity: 8, num_ms_combs: 1, mus: [1], ns: [4], ls: [0], ms_combs: [0], ctildes: [0.04242289579928616, -0.46209685285288027, -0.28563084845603381, -1.0100012667916394, -0.033879111289379295, -0.14838053193258374, 0.55315676460669316, -0.093501594828009585]}
    - {mu0: 0, rank: 1, ndensity: 8, num_ms_combs: 1, mus: [1], ns: [5], ls: [0], ms_combs: [0], ctildes: [-0.15926215535419516, 0.34134289893124242, 0.33625456883236915, 1.2005541448092292, 0.031607910486348874, 0.029066167649507986, -1.0476614685010615, 0.046624422672122717]}
    - {mu0: 0, rank: 1, ndensity: 8, num_ms_combs: 1, mus: [1], ns: [6], ls: [0], ms_combs: [0], ctildes: [0.21967464983929699, -0.16872192945551684, 0.011109263302035701, 0.14040982476031366, -0.014285281202221117, -0.073803963280310622, -0.32771629711420536, -0.043045787489436375]}
    - {mu0: 0, rank: 1, ndensity: 8, num_ms_combs: 1, mus: [2], ns: [1], ls: [0], ms_combs: [0], ctildes: [-0.32245425901808678, -0.67613642484943004, -2.0681526612673928, -1.5948898802679319, -1.7350710345333968, -0.94134788948157255, 1.420822778040983, 0.062592768826471648]}
    - {mu0: 0, rank: 1, ndensity: 8, num_ms_combs: 1, mus: [2], ns: [2], ls: [0], ms_combs: [0], ctildes: [-0.1795193611359038, 0.94442808199666317, 1.9450263212759398, 0.035315703042698307, 1.7403668929726475, 0.75763425000878193, 1.0214410755411025, -0.3180116051439813]}
    - {mu0: 0, rank: 1, ndensity: 8, num_ms_combs: 1, mus: [2], ns: [3], ls: [0], ms_combs: [0], ctildes: [-0.35188575524452131, -1.1432676356422862, -1.5584302636208878, 0.017581566867636979, -1.3474339332301764, -0.48613686784443227, -0.15135199129888552, 0.6115199509460969]}
    - {mu0: 0, rank: 1, ndensity: 8, num_ms_combs: 1, mus: [2], ns: [4], ls: [0], ms_combs: [0], ctildes: [0.28419099580296459, 0.99151420779200783, 1.0870764607520902, 0.42650604106135687, 1.0751928006869225, 0.37009372224607651, -0.58232231159087522, -0.72573097268178632]}
    - {mu0: 0, rank: 1, ndensity: 8, num_ms_combs: 1, mus: [2], ns: [5], ls: [0], ms_combs: [0], ctildes: [0.10180587783516641, -0.54058598283430503, -0.54131878934043109, 0.38916613894630586, -0.71312613905138234, -0.31961794476789962, -0.28894983515643741, 0.55195614692533645]}
    - {mu0: 0, rank: 1, ndensity: 8, num_ms_combs: 1, mus: [2], ns: [6], ls: [0], ms_combs: [0], ctildes: [0.14584054861535242, 0.22253438554039481, 0.39169039906859004, 0.57564274843936014, 0.25506763419106016, 0.26360670388969759, -0.72491372820807753, -0.29783912678691071]}
    - {mu0: 0, rank: 1, ndensity: 8, num_ms_combs: 1, mus: [3], ns: [1], ls: [0], ms_combs: [0], ctildes: [-0.65349126320797046, -0.9901002184077019, -1.9716343247900416, -3.9758268292136494, -0.2530767949359144, -1.1906303316829756, 2.1004651336177274, -0.46240770417265914]}
    - {mu0: 0, rank: 1, ndensity: 8, num_ms_combs: 1, mus: [3], ns: [2], ls: [0], ms_combs: [0], ctildes: [-0.79979626283487626, 0.48058721255684422, 0.96506917013101812, 2.5771199652642336, -0.38142942909493666, 0.59510391665369489, -0.23087832667104763, 0.16908874131155377]}
    - {mu0: 0, rank: 1, ndensity: 8, num_ms_combs: 1, mus: [3], ns: [3], ls: [0], ms_combs: [0], ctildes: [0.30418929126544808, -0.26822448627542539, 0.3286952651300879, -2.5363593474877106, 0.71363222316227315, -0.17748653078493834, -0.86974052017549552, 0.13037524097826816]}
    - {mu0: 0, rank: 1, ndensity: 8, num_ms_combs: 1, mus: [3], ns: [4], ls: [0], ms_combs: [0], ctildes: [-0.40524566742064105, 0.31778123478988496, -0.45247942670596486, 0.9490706927570467, -0.82673389235936323, -0.30116920501691513, 0.96711141488801944, -0.12464674739410406]}
    - {mu0: 0, rank: 1, ndensity: 8, num_ms_combs: 1, mus: [3], ns: [5], ls: [0], ms_combs: [0], ctildes: [0.10049183601060245, -0.10999472163939347, -0.32434081293650069, -0.45908154885805624, 0.68212965464477404, 0.46778534321174681, 0.059550448253217265, 0.09547159292085898]}
    - {mu0: 0, rank: 1, ndensity: 8, num_ms_combs: 1, mus: [3], ns: [6], ls: [0], ms_combs: [0], ctildes: [-0.18380564047079931, -0.087310126457246423, 0.31017035224506928, 0.29802543418612931, -0.29071587126536375, -0.27976518486572977, 0.16896679653837515, -0.064724985053893139]}
    - {mu0: 0, rank: 2, ndensity: 8, num_ms_combs: 1, mus: [0, 0], ns: [1, 1], ls: [0, 0], ms_combs: [0, 0], ctildes: [0.72763515755237651, -0.5037149756677769, -1.0683947746893092, -0.36446067923340852, -0.40322558048990587, 0.29770015394254445, 0.15298570930771663, 0.19702712344841339]}
    - {mu0: 0, rank: 2, ndensity: 8, num_ms_combs: 2, mus: [0, 0], ns: [1, 1], ls: [1, 1], ms_combs: [0, 0, 1, -1], ctildes: [0.03537346596093971, 0.035173726563361284, -0.32782447168215917, 0.5353072173775647, -0.41560450318529324, 0.33260477394646609, 0.33463441165782259, 0.0037074750814404126, -0.070746931921879405, -0.070347453126722553, 0.65564894336431823, -1.0706144347551292, 0.83120900637058626, -0.66520954789293207, -0.66926882331564508, -0.0074149501628808234]}
    - {mu0: 0, rank: 2, ndensity: 8, num_ms_combs: 3, mus: [0, 0], ns: [1, 1], ls: [2, 2], ms_combs: [0, 0, 1, -1, 2, -2], ctildes: [0.11039161974872425, -0.0068805642369001536, -0.0040606566681198521, 0.2615179662588869, -0.01142601437928616, 0.011382225048188281, -0.13770158984326963, -0.0053985236726986083, -0.22078323949744852, 0.013761128473800309, 0.008121313336239706, -0.52303593251777381, 0.022852028758572323, -0.022764450096376565, 0.27540317968653927, 0.010797047345397217, 0.22078323949744857, -0.013761128473800312, -0.0081213133362397077, 0.52303593251777403, -0.022852028758572326, 0.022764450096376572, -0.27540317968653932, -0.01079704734539722]}
    - {mu0: 0, rank: 2, ndensity: 8, num_ms_combs: 4, mus: [0, 0], ns: [1, 1], ls: [3, 3], ms_combs: [0, 0, 1, -1, 2, -2, 3, -3], ctildes: [-0.058237564528614665, -0.052361150987647355, -0.022074365883471135, 0.13243892717048661, -0.019334854048150611, 0.031212108854339178, 0.13453471033862005, -3.7866694870573814e-05, 0.11647512905722933, 0.10472230197529471, 0.04414873176694227, -0.26487785434097322, 0.038669708096301221, -0.062424217708678356, -0.2690694206772401, 7.5733389741147627e-05, -0.11647512905722932, -0.1047223019752947, -0.044148731766942263, 0.26487785434097316, -0.038669708096301221, 0.062424217708678349, 0.26906942067724005, -7.5733389741147614e-05, 0.11647512905722932, 0.1047223019752947, 0.044148731766942263, -0.26487785434097316, 0.038669708096301221, -0.062424217708678349, -0.26906942067724005, 7.5733389741147614e-05]}
    - {mu0: 0, rank: 2, ndensity: 8, num_ms_combs: 1, mus: [0, 0], ns: [1, 2], ls: [0, 0], ms_combs: [0, 0], ctildes: [1.1918439250794706, 0.19621855708025604, -0.68100753226332966, 1.2246772807628619, -0.60461544701816561, -0.080426055504762534, -0.570982800225873, 0.036786001509593214]}
    - {mu0: 0, rank: 2, ndensity: 8, num_ms_combs: 2, mus: [0, 0], ns: [1, 2], ls: [1, 1], ms_combs: [0, 0, 1, -1], ctildes: [0.30151765447554146, -0.14685830711013859, -0.078973743662800952, -0.18090312782775653, -0.14355398708882777, 0.51074446800177653, 0.05665549778339625, -0.058400259670380483, -0.60303530895108282, 0.29371661422027712, 0.15794748732560188, 0.361806255655513, 0.28710797417765549, -1.0214889360035528, -0.11331099556679249, 0.11680051934076094]}
    - {mu0: 0, rank: 2, ndensity: 8, num_ms_combs: 3, mus: [0, 0], ns: [1, 2], ls: [2, 2], ms_combs: [0, 0, 1, -1, 2, -2], ctildes: [0.17666303138161429, -0.012390793581174876, 0.029591821163280352, 0.24093303051653669, -0.018709291444834252, 0.020152873334310199, -0.25932758779206355, -0.0069020638191918011, -0.35332606276322864, 0.024781587162349752, -0.059183642326560711, -0.48186606103307345, 0.037418582889668511, -0.040305746668620406, 0.5186551755841271, 0.013804127638383604, 0.3533260627632287, -0.024781587162349759, 0.059183642326560724, 0.48186606103307356, -0.037418582889668518, 0.040305746668620412, -0.51865517558412721, -0.013804127638383607]}
    - {mu0: 0, rank: 2, ndensity: 8, num_ms_combs: 1, mus: [0, 0], ns: [1, 3], ls: [0, 0], ms_combs: [0, 0], ctildes: [0.15564774510450491, 0.45800967130810055, -0.12468053523909574, -1.5720290574526405, 0.071442992550536918, 0.38204542543844622, -0.65535220715518916, 0.0069074403657675369]}
    - {mu0: 0, rank: 2, ndensity: 8, num_ms_combs: 2, mus: [0, 0], ns: [1, 3], ls: [1, 1], ms_combs: [0, 0, 1, -1], ctildes: [-0.18474264348870217, -0.14396849459500616, 0.10451168537405629, 0.67302135008055808, 0.029587706378920896, 0.11012919282287732, 0.13724563587048319, 0.0048300774497289853, 0.36948528697740429, 0.28793698919001226, -0.20902337074811253, -1.3460427001611159, -0.059175412757841786, -0.22025838564575459, -0.27449127174096632, -0.0096601548994579688]}
    - {mu0: 0, rank: 2, ndensity: 8, num_ms_combs: 1, mus: [0, 0], ns: [2, 2], ls: [0, 0], ms_combs: [0, 0], ctildes: [0.18736394629257402, -0.43054601054848979, 0.20104966505121125, 0.82675540092129529, 0.33558395717089928, -0.38006058263878661, -0.92051708004476696, -0.020742535864991557]}
    - {mu0: 0, rank: 2, ndensity: 8, num_ms_combs: 2, mus: [0, 0], ns: [2, 2], ls: [1, 1], ms_combs: [0, 0, 1, -1], ctildes: [0.16831051236695813, -0.10338505215623575, 0.052645086646858262, -0.020569853083083473, -0.024376905527581892, 0.13522017382196252, -0.15714024611001964, -0.015371862492052066, -0.3366210247339162, 0.20677010431247145, -0.1052901732937165, 0.041139706166166939, 0.04875381105516377, -0.27044034764392499, 0.31428049222003923, 0.030743724984104125]}
    - {mu0: 0, rank: 2, ndensity: 8, num_ms_combs: 1, mus: [0, 0], ns: [2, 3], ls: [0, 0], ms_combs: [0, 0], ctildes: [0.56801541765563801, -0.42858583365052511, 0.29016451089976225, 0.69911750485247903, -0.2962696044619027, 0.35027056977732735, -0.75562384075324029, 0.0043162781578039884]}
    - {mu0: 0, rank: 2, ndensity: 8, num_ms_combs: 2, mus: [0, 0], ns: [2, 3], ls: [1, 1], ms_combs: [0, 0, 1, -1], ctildes: [-0.085683784625755682, 0.026123142201971841, 0.0096334232063703916, 0.1975539106288248, 0.010004060737337448, -0.031729578592851228, 0.034724394162197927, 0.0076816007183850479, 0.17136756925151134, -0.052246284403943667, -0.01926684641274078, -0.39510782125764954, -0.02000812147467489, 0.063459157185702442, -0.069448788324395841, -0.015363201436770092]}
    - {mu0: 0, rank: 2, ndensity: 8, num_ms_combs: 1, mus: [0, 0], ns: [3, 3], ls: [0, 0], ms_combs: [0, 0], ctildes: [0.097864527987706854, -0.18037435347121403, 0.36545683664588779, 0.16171570151687567, -0.19186541777488964, 0.0034737091847775684, -0.61545331802594672, 0.033913434408412158]}
    - {mu0: 0, rank: 2, ndensity: 8, num_ms_combs: 1, mus: [0, 1], ns: [1, 1], ls: [0, 0], ms_combs: [0, 0], ctildes: [-0.79701051765723663, 0.11691482491547919, 0.29390710222323513, -0.3768391410916952, -0.69873156855176244, 0.12904526775491104, 0.41645515888963364, 0.074301421529033893]}
    - {mu0: 0, rank: 2, ndensity: 8, num_ms_combs: 2, mus: [0, 1], ns: [1, 1], ls: [1, 1], ms_combs: [0, 0, 1, -1], ctildes: [-0.052758600964351046, -0.078097739768396138, 0.11516379766403625, 0.15983451805457477, -0.25369317129585633, 0.23235232774616041, -0.10416920788626029, 0.018303404659930016, 0.10551720192870208, 0.15619547953679225, -0.23032759532807245, -0.31966903610914948, 0.50738634259171267, -0.46470465549232071, 0.20833841577252055, -0.036606809319860024]}
    - {mu0: 0, rank: 2, ndensity: 8, num_ms_combs: 1, mus: [0, 1], ns: [1, 2], ls: [0, 0], ms_combs: [0, 0], ctildes: [-0.12033743079910621, 0.058883777503869035, 0.42552816585784881, 0.1881529666050395, 0.037524940182928471, -0.15338991437996777, -0.14028040347260468, -0.0058170936626713611]}
    - {mu0: 0, rank: 2, ndensity: 8, num_ms_combs: 2, mus: [0, 1], ns: [1, 2], ls: [1, 1], ms_combs: [0, 0, 1, -1], ctildes: [0.031624895451611776, 0.074464067400418596, -0.12413123952228793, 0.26344708282892321, -0.035701292619653262, -0.1443302365143925, 0.063512224174563203, 0.0093036228671317944, -0.063249790903223538, -0.14892813480083716, 0.2482624790445758, -0.5268941656578463, 0.07140258523930651, 0.28866047302878495, -0.12702444834912638, -0.018607245734263585]}
    - {mu0: 0, rank: 2, ndensity: 8, num_ms_combs: 1, mus: [0, 1], ns: [1, 3], ls: [0, 0], ms_combs: [0, 0], ctildes: [0.52952162052831875, 0.23073683653789528, -0.1468660167436526, 0.47972710655692702, 0.36363079901620315, 0.1954642483777429, -0.21192018021117448, -0.12854256018775675]}
    - {mu0: 0, rank: 2, ndensity: 8, num_ms_combs: 1, mus: [0, 1], ns: [2, 1], ls: [0, 0], ms_combs: [0, 0], ctildes: [0.34524364029877991, 0.022430718763749066, -0.25976723649833017, -0.15941735433270882, 0.067931815604650739, -0.33625461042849109, 0.30593371303553041, 0.087089942854049418]}
    - {mu0: 0, rank: 2, ndensity: 8, num_ms_combs: 2, mus: [0, 1], ns: [2, 1], ls: [1, 1], ms_combs: [0, 0, 1, -1], ctildes: [0.061228308588849742, 0.14900637652947296, 0.060079829519832484, -0.23071256850702151, 0.0063940019807070848, 0.21045119203044002, 0.19893424232641863, -0.04435783769380526, -0.12245661717769946, -0.29801275305894587, -0.12015965903966494, 0.46142513701404297, -0.012788003961414166, -0.42090238406087999, -0.3978684846528372, 0.088715675387610493]}
    - {mu0: 0, rank: 2, ndensity: 8, num_ms_combs: 1, mus: [0, 1], ns: [2, 2], ls: [0, 0], ms_combs: [0, 0], ctildes: [0.2819259330557084, -0.042073600060136489, -0.18389818756689003, 1.2207638833312371, 0.43355981172498814, 0.34955962632180287, -0.07959936576545068, -0.058338883005566798]}
    - {mu0: 0, rank: 2, ndensity: 8, num_ms_combs: 1, mus: [0, 1], ns: [2, 3], ls: [0, 0], ms_combs: [0, 0], ctildes: [-0.70536782128848219, -0.3454727831251887, -0.48939427735187419, -0.27915212423302666, -0.21482105019163292, -0.3175264891938912, 0.39854058178155488, 0.13879432676785741]}
    - {mu0: 0, rank: 2, ndensity: 8, num_ms_combs: 1, mus: [0, 1], ns: [3, 1], ls: [0, 0], ms_combs: [0, 0], ctildes: [-0.26973092770149881, 0.15990124265083258, -0.25509826824248583, -0.19746986136479175, -0.35257850707913341, 0.37585637113006487, -0.11550712912130461, 0.13076926964897639]}
    - {mu0: 0, rank: 2, ndensity: 8, num_ms_combs: 1, mus: [0, 1], ns: [3, 2], ls: [0, 0], ms_combs: [0, 0], ctildes: [-0.16545895357927357, -0.091572449458618976, 0.31789160525949328, -0.21116880078195263, -0.41689705836235474, 0.082204862110086804, -0.03253885151584144, 0.035882156663796703]}
    - {mu0: 0, rank: 2, ndensity: 8, num_ms_combs: 1, mus: [0, 2], ns: [1, 1], ls: [0, 0], ms_combs: [0, 0], ctildes: [2.0856746025357982, -0.78936607680348936, -1.7036578943060934, 0.3381841306927561, 1.1279606981219519, -0.43767445711973924, -0.63379387703079315, -0.11598387661220415]}
    - {mu0: 0, rank: 2, ndensity: 8, num_ms_combs: 2, mus: [0, 2], ns: [1, 1], ls: [1, 1], ms_combs: [0, 0, 1, -1], ctildes: [-0.19658689807562615, 0.45211624979755161, 0.59912101854803679, 0.19151166428887842, 0.46268078738776153, 0.76777785783136188, -0.0077680028289681116, -0.056703899238181921, 0.3931737961512522, -0.90423249959510299, -1.1982420370960734, -0.38302332857775678, -0.92536157477552283, -1.5355557156627233, 0.015536005657936221, 0.11340779847636383]}
    - {mu0: 0, rank: 2, ndensity: 8, num_ms_combs: 1, mus: [0, 2], ns: [1, 2], ls: [0, 0], ms_combs: [0, 0], ctildes: [0.30625240013985067, 0.32088129933034826, 0.95501523809436051, -1.5676047151482857, 0.32442456793803126, 0.23408003149370779, 0.91535331671147635, 0.13081827212540029]}
    - {mu0: 0, rank: 2, ndensity: 8, num_ms_combs: 2, mus: [0, 2], ns: [1, 2], ls: [1, 1], ms_combs: [0, 0, 1, -1], ctildes: [0.08999341401726571, 0.19444740713739089, -0.88287738414891626, 0.59746832407968276, 0.015011423159339619, 0.20443432624271862, 0.12974312554212394, -0.0077481196472633206, -0.17998682803453139, -0.38889481427478173, 1.7657547682978323, -1.1949366481593653, -0.030022846318679231, -0.40886865248543719, -0.25948625108424783, 0.015496239294526638]}
    - {mu0: 0, rank: 2, ndensity: 8, num_ms_combs: 1, mus: [0, 2], ns: [1, 3], ls: [0, 0], ms_combs: [0, 0], ctildes: [-0.13993506002967021, 0.25635825353935721, 0.72380815253027175, -0.38012622655862338, 0.46168528108840839, 0.073898720893545627, -0.5971115883634962, 0.22564039379764808]}
    - {mu0: 0, rank: 2, ndensity: 8, num_ms_combs: 1, mus: [0, 2], ns: [2, 1], ls: [0, 0], ms_combs: [0, 0], ctildes: [-0.46127040941171782, -0.32088177331303069, -1.3726071003107647, 1.0561047918746926, -0.030019357074856354, -0.37041832192436253, -1.6893775151748445, 0.1157309370182347]}
    - {mu0: 0, rank: 2, ndensity: 8, num_ms_combs: 2, mus: [0, 2], ns: [2, 1], ls: [1, 1], ms_combs: [0, 0, 1, -1], ctildes: [0.066425342765266057, -0.10658282926267675, 1.0727483712070891, -0.080517396505295435, 0.088434767025018637, 0.65112854973717582, -0.76099344502539101, 0.021670581924865026, -0.13285068553053209, 0.21316565852535346, -2.1454967424141778, 0.16103479301059084, -0.17686953405003725, -1.3022570994743514, 1.5219868900507818, -0.043341163849730038]}
    - {mu0: 0, rank: 2, ndensity: 8, num_ms_combs: 1, mus: [0, 2], ns: [2, 2], ls: [0, 0], ms_combs: [0, 0], ctildes: [-0.56913257862730748, 0.3084176087804395, 1.9342995794069147, 0.86779131470479942, 0.29580424859270299, 0.79415644083566583, 1.0106529611798507, 0.014440946450043785]}
    - {mu0: 0, rank: 2, ndensity: 8, num_ms_combs: 1, mus: [0, 2], ns: [2, 3], ls: [0, 0], ms_combs: [0, 0], ctildes: [0.18721590233822352, 0.49697458807458783, 0.20419689208636838, 1.3722073196740754, -0.2343809544987808, -0.072971635381054695, -0.27372677856634675, 0.03582212972371196]}
    - {mu0: 0, rank: 2, ndensity: 8, num_ms_combs: 1, mus: [0, 2], ns: [3, 1], ls: [0, 0], ms_combs: [0, 0], ctildes: [-0.36862300033835621, 0.45632559332059153, 0.18442294075996804, 0.29017070020354746, 0.33457087231049015, 0.45053221125636383, 0.49611888850879599, 0.044662547806642895]}
    - {mu0: 0, rank: 2, ndensity: 8, num_ms_combs: 1, mus: [0, 2], ns: [3, 2], ls: [0, 0], ms_combs: [0, 0], ctildes: [0.6805157555433341, -0.16447219692724213, -0.47629123002598306, 0.54336376429440159, 0.014017781522575379, -0.51517390821314291, -0.45311165964699385, -0.060493179363602191]}
    - {mu0: 0, rank: 2, ndensity: 8, num_ms_combs: 1, mus: [0, 3], ns: [1, 1], ls: [0, 0], ms_combs: [0, 0], ctildes: [-1.0118576482594244, -0.12850024782936811, -0.3013456308926018, -1.1519832982551508, 1.1229201466170522, 0.12703951312457054, -0.71674371401134918, 0.10540652643183682]}
    - {mu0: 0, rank: 2, ndensity: 8, num_ms_combs: 2, mus: [0, 3], ns: [1, 1], ls: [1, 1], ms_combs: [0, 0, 1, -1], ctildes: [-0.18565313439345704, -0.016880450245201861, 0.096576652739708765, -0.38361638833199102, 0.34264674244332022, -0.20952082473471767, -0.080218943965556788, -0.1075841191784091, 0.37130626878691403, 0.033760900490403714, -0.19315330547941748, 0.76723277666398193, -0.68529348488664033, 0.41904164946943528, 0.16043788793111355, 0.21516823835681814]}
    - {mu0: 0, rank: 2, ndensity: 8, num_ms_combs: 1, mus: [0, 3], ns: [1, 2], ls: [0, 0], ms_combs: [0, 0], ctildes: [-0.74602928395923207, -0.12540287183061946, -0.058167995486200885, -0.22560157941112952, -0.9290443172798859, 0.078840638090580839, -0.28848433149009362, -0.26220314970856945]}
    - {mu0: 0, rank: 2, ndensity: 8, num_ms_combs: 2, mus: [0, 3], ns: [1, 2], ls: [1, 1], ms_combs: [0, 0, 1, -1], ctildes: [0.24115400045248053, -0.030286727947923434, -0.464637879687886, -0.60294054712968392, 0.042598323406802231, 0.0051759337060122137, 0.086573686040669048, -0.06307149745367005, -0.48230800090496101, 0.06057345589584686, 0.92927575937577189, 1.2058810942593676, -0.085196646813604449, -0.010351867412024424, -0.17314737208133804, 0.1261429949073401]}
    - {mu0: 0, rank: 2, ndensity: 8, num_ms_combs: 1, mus: [0, 3], ns: [1, 3], ls: [0, 0], ms_combs: [0, 0], ctildes: [0.55835507552809216, -0.029817633946378937, -0.12180301274532863, 0.24340185297891856, 0.10391325619144375, 0.046613943493925863, 0.14145493177549892, -0.18508569754136717]}
    - {mu0: 0, rank: 2, ndensity: 8, num_ms_combs: 1, mus: [0, 3], ns: [2, 1], ls: [0, 0], ms_combs: [0, 0], ctildes: [-0.036329322550726295, -0.3453046304712758, 0.23131543278094235, 0.84543820663700842, -0.25994673339046281, -0.17531094971713782, -0.12545442364061704, -0.86255665529486503]}
    - {mu0: 0, rank: 2, ndensity: 8, num_ms_combs: 2, mus: [0, 3], ns: [2, 1], ls: [1, 1], ms_combs: [0, 0, 1, -1], ctildes: [0.30303713540140315, -0.022128241976708974, -0.3344876165556957, -0.21832290829348527, 0.083623232554633387, 0.043950465252094006, 0.18879410431519375, -0.020544038272164566, -0.60607427080280618, 0.044256483953417941, 0.66897523311139118, 0.43664581658697044, -0.16724646510926675, -0.087900930504187999, -0.37758820863038739, 0.041088076544329125]}
    - {mu0: 0, rank: 2, ndensity: 8, num_ms_combs: 1, mus: [0, 3], ns: [2, 2], ls: [0, 0], ms_combs: [0, 0], ctildes: [0.090206950395852331, 0.64184335654620395, -0.064402630545684528, -1.1298449809252367, 0.48688672727077575, 0.10511016973856306, 0.48763810140878427, -0.34085501553009517]}
    - {mu0: 0, rank: 2, ndensity: 8, num_ms_combs: 1, mus: [0, 3], ns: [2, 3], ls: [0, 0], ms_combs: [0, 0], ctildes: [0.17088695632886139, -0.7039807810823725, 0.093339022719848216, 0.28530566023373793, -0.052693908227443284, -0.30075376021021932, -0.18941586098875826, -0.046917877842356244]}
    - {mu0: 0, rank: 2, ndensity: 8, num_ms_combs: 1, mus: [0, 3], ns: [3, 1], ls: [0, 0], ms_combs: [0, 0], ctildes: [-0.36258506187743061, -0.24667937462682732, -0.25317902571888445, 0.31884926775837769, -0.014367513965039368, -0.031164878825963457, -0.19641915816159974, 0.22848620090875316]}
    - {mu0: 0, rank: 2, ndensity: 8, num_ms_combs: 1, mus: [0, 3], ns: [3, 2], ls: [0, 0], ms_combs: [0, 0], ctildes: [-0.1697640085959983, 0.26720067434428307, 0.071750177536569454, 0.019379328406662056, -0.020155268615620069, -0.7131057497562695, -0.21615553100523868, 0.06820989650051093]}
    - {mu0: 0, rank: 2, ndensity: 8, num_ms_combs: 1, mus: [1, 1], ns: [1, 1], ls: [0, 0], ms_combs: [0, 0], ctildes: [0.14966854035081228, 0.54301153405782376, -1.2950430414322573, 1.6257664256425572, -0.28957380389505566, 0.013058525752338087, 2.9023332684310286, -0.22921436689254607]}
    - {mu0: 0, rank: 2, ndensity: 8, num_ms_combs: 2, mus: [1, 1], ns: [1, 1], ls: [1, 1], ms_combs: [0, 0, 1, -1], ctildes: [-0.028594737056133763, -0.16135206198239294, -0.2324348987001422, 0.59758845721258913, 0.0069813690527964645, -0.022197602138980324, 0.38301645908040494, 0.0094350206346587671, 0.057189474112267519, 0.32270412396478582, 0.46486979740028428, -1.195176914425178, -0.013962738105592926, 0.044395204277960634, -0.76603291816080976, -0.018870041269317531]}
    - {mu0: 0, rank: 2, ndensity: 8, num_ms_combs: 1, mus: [1, 1], ns: [1, 2], ls: [0, 0], ms_combs: [0, 0], ctildes: [-0.23268652008104387, 0.0026133906653644495, 0.32438948538888068, -1.7025260130847131, 0.30176392958019926, 0.062229654005581059, -0.45246622743405845, 0.66043911225837981]}
    - {mu0: 0, rank: 2, ndensity: 8, num_ms_combs: 2, mus: [1, 1], ns: [1, 2], ls: [1, 1], ms_combs: [0, 0, 1, -1], ctildes: [-0.032441692505085239, 0.094677477646019997, -0.012000961225499665, -0.0062879971497616597, 0.13534228474066218, -0.20722745028778553, -0.16527980501290324, 0.019297128341600703, 0.064883385010170477, -0.18935495529203997, 0.024001922450999327, 0.012575994299523318, -0.2706845694813243, 0.41445490057557099, 0.33055961002580642, -0.038594256683201399]}
    - {mu0: 0, rank: 2, ndensity: 8, num_ms_combs: 1, mus: [1, 1], ns: [1, 3], ls: [0, 0], ms_combs: [0, 0], ctildes: [-0.43118282063563318, 0.014553114914592175, -0.47827900513273136, 0.80081251665342024, 0.025390575039894146, -0.33760911278108868, -0.49736600006366111, 0.17589587155637507]}
    - {mu0: 0, rank: 2, ndensity: 8, num_ms_combs: 1, mus: [1, 1], ns: [2, 2], ls: [0, 0], ms_combs: [0, 0], ctildes: [-0.16977733463915218, 0.29122041025439638, -0.16352745398231561, 0.70805419848691842, 0.22335101088046172, -0.052511941891315563, -0.035055191176326411, 0.33277448121172765]}
    - {mu0: 0, rank: 2, ndensity: 8, num_ms_combs: 1, mus: [1, 1], ns: [2, 3], ls: [0, 0], ms_combs: [0, 0], ctildes: [-0.12148927932124008, 0.15475397342037545, -0.41978355750104035, 0.37250271686723424, -0.15036624259315134, -0.21141543048111985, -0.17836735255931424, -0.1088203585143596]}
    - {mu0: 0, rank: 2, ndensity: 8, num_ms_combs: 1, mus: [1, 2], ns: [1, 1], ls: [0, 0], ms_combs: [0, 0], ctildes: [1.4147151267711962, -0.78824292790327477, -0.89180703175339349, -0.63578919644678389, -0.13819764030093057, -0.53066010342827552, 0.72707880152044135, 0.99469928196941104]}
    - {mu0: 0, rank: 2, ndensity: 8, num_ms_combs: 2, mus: [1, 2], ns: [1, 1], ls: [1, 1], ms_combs: [0, 0, 1, -1], ctildes: [1.0342739998518524, -0.48620563876692968, -0.40854119260366578, -1.0346140155907393, 0.11535130664718114, -0.0010318038723864057, 0.38904061127657275, -0.052301912402350298, -2.0685479997037044, 0.97241127753385914, 0.81708238520733134, 2.0692280311814781, -0.23070261329436223, 0.002063607744772811, -0.77808122255314538, 0.10460382480470058]}
    - {mu0: 0, rank: 2, ndensity: 8, num_ms_combs: 3, mus: [1, 2], ns: [1, 1], ls: [2, 2], ms_combs: [0, 0, 1, -1, 2, -2], ctildes: [0.034819813254009055, 0.025012329131438225, 0.12605496516673295, 0.12337986007163311, 0.018647058651281821, 0.031857986457748275, 0.023370707355226703, 0.016013524345681169, -0.069639626508018124, -0.050024658262876456, -0.2521099303334659, -0.24675972014326625, -0.037294117302563649, -0.063715972915496563, -0.046741414710453413, -0.032027048691362345, 0.069639626508018138, 0.05002465826287647, 0.25210993033346596, 0.24675972014326633, 0.037294117302563656, 0.063715972915496577, 0.04674141471045342, 0.032027048691362352]}
    - {mu0: 0, rank: 2, ndensity: 8, num_ms_combs: 1, mus: [1, 2], ns: [1, 2], ls: [0, 0], ms_combs: [0, 0], ctildes: [-1.0472186795736023, 0.36454899658899181, 0.5843513328844816, 0.92822205258085777, 0.63747921520709072, 0.094008336528348488, -0.6877400842556346, 0.87713389281220855]}
    - {mu0: 0, rank: 2, ndensity: 8, num_ms_combs: 2, mus: [1, 2], ns: [1, 2], ls: [1, 1], ms_combs: [0, 0, 1, -1], ctildes: [-0.15047085647693681, 0.23651159387033191, -0.34829347694676543, 0.056115216461837626, 0.088692259890358865, -0.027501762781525194, 0.15878817286805874, -0.0032993201610770737, 0.30094171295387356, -0.47302318774066371, 0.69658695389353076, -0.11223043292367524, -0.1773845197807177, 0.055003525563050382, -0.31757634573611743, 0.0065986403221541465]}
    - {mu0: 0, rank: 2, ndensity: 8, num_ms_combs: 1, mus: [1, 2], ns: [1, 3], ls: [0, 0], ms_combs: [0, 0], ctildes: [-0.60640187790015943, -0.51803238498520776, -0.7416035203489697, -0.14309890387741034, -0.8865112339033725, -0.27654715652908363, 0.21056442158113003, 0.40649570420331649]}
    - {mu0: 0, rank: 2, ndensity: 8, num_ms_combs: 2, mus: [1, 2], ns: [1, 3], ls: [1, 1], ms_combs: [0, 0, 1, -1], ctildes: [-0.02193732012854464, 0.21288159341479368, -0.093294705646196227, -0.090135667783020915, -0.013410068233159352, -0.25552598111838276, 0.11340338197592591, -0.004997567289836813, 0.043874640257089273, -0.4257631868295873, 0.18658941129239243, 0.1802713355660418, 0.026820136466318697, 0.51105196223676541, -0.22680676395185176, 0.0099951345796736243]}
    - {mu0: 0, rank: 2, ndensity: 8, num_ms_combs: 1, mus: [1, 2], ns: [2, 1], ls: [0, 0], ms_combs: [0, 0], ctildes: [-0.77590534465182337, -0.3034193216600965, -0.50265183135057123, 1.4018896987832845, 0.22260983610138066, -0.20445737161857191, -0.038879800820538532, 0.65889523373796555]}
    - {mu0: 0, rank: 2, ndensity: 8, num_ms_combs: 2, mus: [1, 2], ns: [2, 1], ls: [1, 1], ms_combs: [0, 0, 1, -1], ctildes: [-0.025706740541452233, 0.11939697097605217, -0.39337875818213375, 0.1156844606025777, 0.063607421822245921, -0.016712720713076227, 0.12545238315132765, -0.017793098112171848, 0.051413481082904458, -0.23879394195210432, 0.78675751636426727, -0.23136892120515537, -0.12721484364449182, 0.033425441426152447, -0.25090476630265524, 0.03558619622434369]}
    - {mu0: 0, rank: 2, ndensity: 8, num_ms_combs: 1, mus: [1, 2], ns: [2, 2], ls: [0, 0], ms_combs: [0, 0], ctildes: [-0.53752399608088086, -0.10257282424885625, -0.41458890939364462, -0.82429676213354508, -0.2472224251450286, 0.32148914476225982, -0.54954672270975435, 0.25356743492412182]}
    - {mu0: 0, rank: 2, ndensity: 8, num_ms_combs: 2, mus: [1, 2], ns: [2, 2], ls: [1, 1], ms_combs: [0, 0, 1, -1], ctildes: [0.1389396131665992, 0.017871173265494918, -0.010755870410586354, 0.19211809904914912, 0.013089092502413045, 0.026400988475520488, -0.21913518084830588, -0.0027706304023620691, -0.27787922633319834, -0.03574234653098983, 0.021511740821172704, -0.38423619809829818, -0.026178185004826087, -0.052801976951040969, 0.43827036169661165, 0.0055412608047241364]}
    - {mu0: 0, rank: 2, ndensity: 8, num_ms_combs: 1, mus: [1, 2], ns: [2, 3], ls: [0, 0], ms_combs: [0, 0], ctildes: [-0.29789947736034378, -0.15991588277401342, 0.067993342257279488, -0.20788243245073129, -0.56248655047675844, -0.33468571106239342, -0.073045323053719247, -0.0038184665798763162]}
    - {mu0: 0, rank: 2, ndensity: 8, num_ms_combs: 1, mus: [1, 2], ns: [3, 1], ls: [0, 0], ms_combs: [0, 0], ctildes: [-0.38509144430099174, 0.076526618971979821, -0.73527059014255791, 0.96651124723836068, 0.17224750570151676, -0.03748410764832439, 0.026578217096403574, -0.17056168960648063]}
    - {mu0: 0, rank: 2, ndensity: 8, num_ms_combs: 2, mus: [1, 2], ns: [3, 1], ls: [1, 1], ms_combs: [0, 0, 1, -1], ctildes: [0.0011962813455791311, -0.0073347133723467789, 0.10068529852136215, -0.24919264193466539, -0.030730546579521921, -0.1363069879171509, 0.14269899085749227, -0.031732529025108355, -0.0023925626911582617, 0.014669426744693556, -0.20137059704272428, 0.49838528386933068, 0.061461093159043828, 0.27261397583430175, -0.28539798171498448, 0.063465058050216697]}
    - {mu0: 0, rank: 2, ndensity: 8, num_ms_combs: 1, mus: [1, 2], ns: [3, 2], ls: [0, 0], ms_combs: [0, 0], ctildes: [0.84698675827579417, 0.017744445130090925, 1.3210390982750555, -0.064935519102946135, -0.057810850271362235, 0.38380638672965356, 0.084440763728668267, -0.27569107243576446]}
    - {mu0: 0, rank: 2, ndensity: 8, num_ms_combs: 1, mus: [1, 2], ns: [3, 3], ls: [0, 0], ms_combs: [0, 0], ctildes: [0.39875253472568656, 0.29188850018799761, 0.31369753506071668, -1.6294674703466365, 0.063111766254055304, -0.28758506418622937, 0.27624216006038332, -0.091220171529244026]}
    - {mu0: 0, rank: 2, ndensity: 8, num_ms_combs: 1, mus: [1, 3], ns: [1, 1], ls: [0, 0], ms_combs: [0, 0], ctildes: [-0.041210924214435798, -0.06870965553707109, -0.0071751630816259907, -0.25221686091332379, 0.39450115586958823, -0.12433082716626272, 0.054510097004964786, 0.077598489408479687]}
    - {mu0: 0, rank: 2, ndensity: 8, num_ms_combs: 2, mus: [1, 3], ns: [1, 1], ls: [1, 1], ms_combs: [0, 0, 1, -1], ctildes: [-0.0085390691155475939, 0.16728427060193168, 0.28112726410732192, 0.45656891581562414, -0.51994563758863266, 0.090119162041415263, -0.29277313662342125, 0.06247637805177951, 0.017078138231095184, -0.33456854120386331, -0.56225452821464372, -0.91313783163124818, 1.0398912751772651, -0.1802383240828305, 0.58554627324684239, -0.12495275610355899]}
    - {mu0: 0, rank: 2, ndensity: 8, num_ms_combs: 3, mus: [1, 3], ns: [1, 1], ls: [2, 2], ms_combs: [0, 0, 1, -1, 2, -2], ctildes: [-0.20595770189684234, 0.086378527854989395, 0.17258926524205365, 0.066939691896741718, -0.13102033870056545, 0.082553292430270472, -0.024402942747356535, 0.034590221118401446, 0.41191540379368474, -0.17275705570997879, -0.34517853048410735, -0.13387938379348344, 0.26204067740113096, -0.16510658486054094, 0.048805885494713076, -0.069180442236802905, -0.4119154037936848, 0.17275705570997885, 0.34517853048410746, 0.13387938379348346, -0.26204067740113102, 0.165106584860541, -0.048805885494713083, 0.069180442236802919]}
    - {mu0: 0, rank: 2, ndensity: 8, num_ms_combs: 1, mus: [1, 3], ns: [1, 2], ls: [0, 0], ms_combs: [0, 0], ctildes: [0.80717128674649496, 0.30638762586930024, 0.76812041976363699, 0.60455201028453687, -0.47374117243845115, 0.2727642137089637, 0.02929971139773678, 0.84546095623990025]}
    - {mu0: 0, rank: 2, ndensity: 8, num_ms_combs: 2, mus: [1, 3], ns: [1, 2], ls: [1, 1], ms_combs: [0, 0, 1, -1], ctildes: [0.027626262133076, 0.0074458526246253716, 0.27928080527370241, -0.20111715838683439, -0.19153958476630223, 0.09519359256652675, 0.12072853304586573, -0.021047032334835684, -0.055252524266151994, -0.01489170524925074, -0.55856161054740472, 0.40223431677366867, 0.3830791695326044, -0.19038718513305347, -0.2414570660917314, 0.042094064669671361]}
    - {mu0: 0, rank: 2, ndensity: 8, num_ms_combs: 1, mus: [1, 3], ns: [1, 3], ls: [0, 0], ms_combs: [0, 0], ctildes: [-0.12751556896733218, -0.16737012244963828, -0.002978088973133574, -1.1332498351863849, 0.37690297032285219, -0.22435740044095542, 0.62742702824014074, 0.40852327998939136]}
    - {mu0: 0, rank: 2, ndensity: 8, num_ms_combs: 2, mus: [1, 3], ns: [1, 3], ls: [1, 1], ms_combs: [0, 0, 1, -1], ctildes: [0.12566448760521459, -0.044615011100339844, 0.26286409014898759, 0.017602865231900019, -0.12250194078615126, 0.047732254061669414, 0.058180611028677699, -0.049166395637410883, -0.25132897521042913, 0.089230022200679673, -0.52572818029797508, -0.035205730463800031, 0.24500388157230246, -0.095464508123338801, -0.11636122205735538, 0.098332791274821738]}
    - {mu0: 0, rank: 2, ndensity: 8, num_ms_combs: 1, mus: [1, 3], ns: [2, 1], ls: [0, 0], ms_combs: [0, 0], ctildes: [0.19759523478178859, -0.0069061577061015232, 0.015443725291372659, -0.21289083879257334, -0.0092501182030763508, 0.029132576101085078, 0.084102086161171999, 0.45442910753228166]}
    - {mu0: 0, rank: 2, ndensity: 8, num_ms_combs: 2, mus: [1, 3], ns: [2, 1], ls: [1, 1], ms_combs: [0, 0, 1, -1], ctildes: [0.15901557215281625, 0.13639318257720778, 0.054105772892654967, -0.033920842630067755, -0.3408210292140092, 0.056412429620132314, 0.11859547277597507, -0.0046152942028852935, -0.31803114430563245, -0.27278636515441551, -0.10821154578530991, 0.067841685260135495, 0.68164205842801828, -0.1128248592402646, -0.23719094555195011, 0.0092305884057705852]}
    - {mu0: 0, rank: 2, ndensity: 8, num_ms_combs: 1, mus: [1, 3], ns: [2, 2], ls: [0, 0], ms_combs: [0, 0], ctildes: [-0.1792390810244309, 0.0085448953313607152, -0.1376380874499821, 0.16355845491486923, 0.055581539802163252, -0.073831893804605905, -0.11061896060687594, -0.2292378216706106]}
    - {mu0: 0, rank: 2, ndensity: 8, num_ms_combs: 2, mus: [1, 3], ns: [2, 2], ls: [1, 1], ms_combs: [0, 0, 1, -1], ctildes: [-0.037679312747831602, -0.015375687934049425, 0.25396516578935124, 0.078343968069277431, -0.06311546458023562, 0.048481661707572128, -0.012216311419691605, -0.0097477330895625481, 0.07535862549566319, 0.030751375868098844, -0.50793033157870238, -0.15668793613855483, 0.12623092916047121, -0.096963323415144242, 0.024432622839383203, 0.019495466179125093]}
    - {mu0: 0, rank: 2, ndensity: 8, num_ms_combs: 1, mus: [1, 3], ns: [2, 3], ls: [0, 0], ms_combs: [0, 0], ctildes: [0.050796312943439399, -0.053919641275970931, 0.05132573307094522, -0.081131963005329502, -0.37718249636460821, 0.056608824820793192, 0.03725183845738618, -0.88660223849171282]}
    - {mu0: 0, rank: 2, ndensity: 8, num_ms_combs: 1, mus: [1, 3], ns: [3, 1], ls: [0, 0], ms_combs: [0, 0], ctildes: [0.080179338578777667, 0.032195685251582187, -0.28476489451546932, -0.32412546082267552, 0.3799306317583398, -0.19045452286615225, 0.094292046059303289, 0.25025495645551554]}
    - {mu0: 0, rank: 2, ndensity: 8, num_ms_combs: 2, mus: [1, 3], ns: [3, 1], ls: [1, 1], ms_combs: [0, 0, 1, -1], ctildes: [-0.033367190753276835, 0.047611585821737405, 0.15700051862280801, 0.035186078722182448, -0.17886614073520019, -0.049755672531840114, 0.042901716099119455, 0.018632044238550041, 0.066734381506553656, -0.095223171643474797, -0.31400103724561595, -0.070372157444364883, 0.35773228147040032, 0.099511345063680215, -0.085803432198238883, -0.037264088477100075]}
    - {mu0: 0, rank: 2, ndensity: 8, num_ms_combs: 1, mus: [1, 3], ns: [3, 2], ls: [0, 0], ms_combs: [0, 0], ctildes: [0.02139717528355823, 0.1529607172521088, 0.38181384275431057, 0.17989847894714844, 0.13136776179862217, 0.51308934933264838, -0.086129355944067718, -0.1247656775027606]}
    - {mu0: 0, rank: 2, ndensity: 8, num_ms_combs: 1, mus: [1, 3], ns: [3, 3], ls: [0, 0], ms_combs: [0, 0], ctildes: [0.17215739131561575, -0.046516793410805155, -0.16678511997487663, 0.29712610459157401, -0.10755829062422918, -0.14113878326346876, 0.19508440436525515, -0.0018926926187507486]}
    - {mu0: 0, rank: 2, ndensity: 8, num_ms_combs: 1, mus: [2, 2], ns: [1, 1], ls: [0, 0], ms_combs: [0, 0], ctildes: [1.4038281827290109, -0.59461187713417896, -1.9686928473486891, -0.40393590643059712, 0.40096371357467936, -0.87152691930992954, 0.80402573652265708, -0.035706195837882058]}
    - {mu0: 0, rank: 2, ndensity: 8, num_ms_combs: 2, mus: [2, 2], ns: [1, 1], ls: [1, 1], ms_combs: [0, 0, 1, -1], ctildes: [-0.65973499849059525, -0.50118844607846558, 0.6013798095891002, 0.97079864062760768, 0.99760848682531367, -0.45897474387499287, 0.075692711573067478, 0.21985335944803494, 1.3194699969811903, 1.0023768921569312, -1.2027596191782002, -1.9415972812552151, -1.9952169736506269, 0.91794948774998553, -0.15138542314613493, -0.43970671889606983]}
    - {mu0: 0, rank: 2, ndensity: 8, num_ms_combs: 1, mus: [2, 2], ns: [1, 2], ls: [0, 0], ms_combs: [0, 0], ctildes: [-1.3844487681167803, 1.0319512264582194, 1.8152267600501508, -0.52572317758307174, -0.54995269227817711, 0.27188327290448183, 0.96224604180452633, 0.025578137786747241]}
    - {mu0: 0, rank: 2, ndensity: 8, num_ms_combs: 2, mus: [2, 2], ns: [1, 2], ls: [1, 1], ms_combs: [0, 0, 1, -1], ctildes: [-0.041469487231502421, -0.22338466129119927, -1.3414430711691661, 0.29713698055089582, 0.19749309014901253, 0.6946407128164076, 0.42436185608655508, 0.06639987048140096, 0.082938974463004828, 0.44676932258239843, 2.6828861423383317, -0.59427396110179154, -0.39498618029802496, -1.389281425632815, -0.84872371217310993, -0.13279974096280189]}
    - {mu0: 0, rank: 2, ndensity: 8, num_ms_combs: 1, mus: [2, 2], ns: [1, 3], ls: [0, 0], ms_combs: [0, 0], ctildes: [0.24021529807144121, -0.060480187016266423, 0.99887653568612644, -2.023697934128756, -0.094983007091515192, 0.020006004845280527, -1.6758682446367856, 0.13660171700420293]}
    - {mu0: 0, rank: 2, ndensity: 8, num_ms_combs: 1, mus: [2, 2], ns: [2, 2], ls: [0, 0], ms_combs: [0, 0], ctildes: [0.82060854118056026, -0.32258436986642836, -1.1682074744070874, -0.29431844887474773, -0.041382278880635788, 0.209987375231556, 0.063244182273780536, 0.030047767674615242]}
    - {mu0: 0, rank: 2, ndensity: 8, num_ms_combs: 1, mus: [2, 2], ns: [2, 3], ls: [0, 0], ms_combs: [0, 0], ctildes: [0.47555635073998948, -0.044837953888363397, 0.639355985514661, 0.89228023244665911, -0.11109319967703672, 0.34077805894733471, 0.67861649553239023, -0.12088121390930801]}
    - {mu0: 0, rank: 2, ndensity: 8, num_ms_combs: 1, mus: [2, 3], ns: [1, 1], ls: [0, 0], ms_combs: [0, 0], ctildes: [0.78952176171657562, 0.33943538162855413, 0.40055773227605618, 0.63489323933468134, 1.8762045298387808, 0.30411960755521866, 1.2487594392243262, 1.9883111305909509]}
    - {mu0: 0, rank: 2, ndensity: 8, num_ms_combs: 2, mus: [2, 3], ns: [1, 1], ls: [1, 1], ms_combs: [0, 0, 1, -1], ctildes: [0.04283909671287317, -0.22709256998086569, -0.29075408261223817, 2.2962716574602942, -0.10211926956338317, -0.15524602838591006, -0.070012577658499858, -0.15943273003536135, -0.085678193425746327, 0.45418513996173127, 0.58150816522447624, -4.5925433149205874, 0.20423853912676632, 0.31049205677182007, 0.14002515531699969, 0.31886546007072264]}
    - {mu0: 0, rank: 2, ndensity: 8, num_ms_combs: 3, mus: [2, 3], ns: [1, 1], ls: [2, 2], ms_combs: [0, 0, 1, -1, 2, -2], ctildes: [0.31209253140850801, -0.080319288524435262, 0.1723201152930863, -0.2979116008480952, 0.015192869394068588, 0.047456094758870658, -0.19754867137933724, -0.027094658696920619, -0.62418506281701613, 0.16063857704887052, -0.34464023058617266, 0.59582320169619052, -0.030385738788137179, -0.09491218951774133, 0.39509734275867453, 0.054189317393841245, 0.62418506281701636, -0.16063857704887058, 0.34464023058617277, -0.59582320169619063, 0.030385738788137186, 0.094912189517741358, -0.39509734275867464, -0.054189317393841259]}
    - {mu0: 0, rank: 2, ndensity: 8, num_ms_combs: 1, mus: [2, 3], ns: [1, 2], ls: [0, 0], ms_combs: [0, 0], ctildes: [-0.89947302144579666, 0.25375951504409761, 1.7930723254008911, 0.57074932283219648, -0.13209901693746948, -0.13479818392519438, 0.61570560658664153, -0.27639073958366539]}
    - {mu0: 0, rank: 2, ndensity: 8, num_ms_combs: 2, mus: [2, 3], ns: [1, 2], ls: [1, 1], ms_combs: [0, 0, 1, -1], ctildes: [-0.058822696097934328, 0.24064398079903426, 0.1179339698382398, 0.078325373720947014, 0.074924478134534775, -0.16216572770365256, -0.37594428056798157, -0.00058773196043204734, 0.11764539219586863, -0.48128796159806847, -0.23586793967647954, -0.156650747441894, -0.14984895626906949, 0.32433145540730507, 0.75188856113596303, 0.0011754639208640945]}
    - {mu0: 0, rank: 2, ndensity: 8, num_ms_combs: 1, mus: [2, 3], ns: [1, 3], ls: [0, 0], ms_combs: [0, 0], ctildes: [-0.11150003099019565, -0.78246017036513593, -2.014041965797555, 1.1955439061469266, -0.089899091924600313, -0.10328396754672087, -0.49419852660742003, -0.66804294426346034]}
    - {mu0: 0, rank: 2, ndensity: 8, num_ms_combs: 2, mus: [2, 3], ns: [1, 3], ls: [1, 1], ms_combs: [0, 0, 1, -1], ctildes: [0.16580393605217486, 0.10691060073588281, -0.50931122164658604, -0.3360090825719147, -0.1202477421121174, -0.32217693373767281, -0.0542858958208291, 0.02279876135575443, -0.33160787210434967, -0.21382120147176559, 1.0186224432931719, 0.67201816514382928, 0.24049548422423475, 0.64435386747534551, 0.10857179164165819, -0.045597522711508853]}
    - {mu0: 0, rank: 2, ndensity: 8, num_ms_combs: 1, mus: [2, 3], ns: [2, 1], ls: [0, 0], ms_combs: [0, 0], ctildes: [0.45707640521775467, 0.24989825942891905, 0.56653652597401805, 0.14838836647301928, -0.57416582935928973, 0.050742574786634201, 1.0483548267849196, -1.4760578266645035]}
    - {mu0: 0, rank: 2, ndensity: 8, num_ms_combs: 2, mus: [2, 3], ns: [2, 1], ls: [1, 1], ms_combs: [0, 0, 1, -1], ctildes: [-0.11547356190845436, 0.20815969385260985, 0.12777278099145947, -0.39556543389450277, -0.19554237177268424, 0.063433707671413167, 0.041424123836784274, 0.0033107322556682767, 0.23094712381690866, -0.41631938770521965, -0.25554556198291889, 0.79113086778900543, 0.39108474354536843, -0.12686741534282631, -0.082848247673568534, -0.0066214645113365517]}
    - {mu0: 0, rank: 2, ndensity: 8, num_ms_combs: 1, mus: [2, 3], ns: [2, 2], ls: [0, 0], ms_combs: [0, 0], ctildes: [-0.033030494137640982, -0.039150244883250154, -1.229565135440539, -0.53101113574003533, -1.4560521537663393, -0.44016218724453637, -0.98362388979138282, 0.61569476158897585]}
    - {mu0: 0, rank: 2, ndensity: 8, num_ms_combs: 2, mus: [2, 3], ns: [2, 2], ls: [1, 1], ms_combs: [0, 0, 1, -1], ctildes: [0.27236248490097553, 0.016616188196639247, 0.13035037123940524, 0.13749014955629396, -0.022654546615067987, 0.01346605146198614, -0.31385524663455311, -0.015913753610160966, -0.54472496980195095, -0.033232376393278487, -0.26070074247881042, -0.27498029911258787, 0.045309093230135968, -0.026932102923972277, 0.627710493269106, 0.031827507220321925]}
    - {mu0: 0, rank: 2, ndensity: 8, num_ms_combs: 1, mus: [2, 3], ns: [2, 3], ls: [0, 0], ms_combs: [0, 0], ctildes: [-0.17324503182730525, -0.32348868019475918, 0.78868660757188691, -0.52589782170254318, -0.35344814734926372, 0.0027803430595173778, 0.58244639349871796, 1.0450196352873624]}
    - {mu0: 0, rank: 2, ndensity: 8, num_ms_combs: 1, mus: [2, 3], ns: [3, 1], ls: [0, 0], ms_combs: [0, 0], ctildes: [0.52651200597642378, -0.04704958131662787, 0.12503227066671743, 0.80016380676924115, 0.095262450354467593, 0.0021024164855558583, 0.23990664784135302, -0.77986336001704937]}
    - {mu0: 0, rank: 2, ndensity: 8, num_ms_combs: 2, mus: [2, 3], ns: [3, 1], ls: [1, 1], ms_combs: [0, 0, 1, -1], ctildes: [0.19841555344539405, -0.3852407666329441, -0.40229027205085849, -0.17105523338762813, -0.083584727198960637, -0.041055543337568147, -0.19262529186510255, 0.012982869922583207, -0.39683110689078804, 0.77048153326588809, 0.80458054410171675, 0.34211046677525619, 0.16716945439792125, 0.08211108667513628, 0.38525058373020504, -0.025965739845166407]}
    - {mu0: 0, rank: 2, ndensity: 8, num_ms_combs: 1, mus: [2, 3], ns: [3, 2], ls: [0, 0], ms_combs: [0, 0], ctildes: [-0.31620978689251439, 0.30629325201048119, 0.58150417879580452, -0.27554070133854752, -0.026120562862647335, 0.21085188015864531, 0.16703788962610774, -0.99090986015439064]}
    - {mu0: 0, rank: 2, ndensity: 8, num_ms_combs: 1, mus: [2, 3], ns: [3, 3], ls: [0, 0], ms_combs: [0, 0], ctildes: [-0.26653590063622518, -0.37484095923601624, -0.70559962633991691, -0.03071199975685758, 0.30184455259356874, -0.20769054498582651, -0.41102887593413845, -0.17431788402562753]}
    - {mu0: 0, rank: 2, ndensity: 8, num_ms_combs: 1, mus: [3, 3], ns: [1, 1], ls: [0, 0], ms_combs: [0, 0], ctildes: [3.6019250148759498, 0.34478155290434326, 1.543210820451298, -0.62702128065313911, 0.11830864853382263, 0.34135674228158913, 2.6499912630465414, 3.6901535745481842]}
    - {mu0: 0, rank: 2, ndensity: 8, num_ms_combs: 2, mus: [3, 3], ns: [1, 1], ls: [1, 1], ms_combs: [0, 0, 1, -1], ctildes: [0.90899138159738346, 0.11282356830322689, 0.18347605012797463, -0.2679892666467133, -0.11527021488473532, 0.25686321943262136, 0.59488598689136274, 0.013533300686630933, -1.8179827631947667, -0.22564713660645372, -0.36695210025594921, 0.53597853329342648, 0.23054042976947059, -0.51372643886524261, -1.1897719737827253, -0.027066601373261862]}
    - {mu0: 0, rank: 2, ndensity: 8, num_ms_combs: 1, mus: [3, 3], ns: [1, 2], ls: [0, 0], ms_combs: [0, 0], ctildes: [-0.21433075917352098, 0.11304579663436087, -0.0011297879683912074, -0.23397014351230389, -0.6132867269408061, -0.075032126312096464, -0.32624091841541819, 2.2683480150956794]}
    - {mu0: 0, rank: 2, ndensity: 8, num_ms_combs: 2, mus: [3, 3], ns: [1, 2], ls: [1, 1], ms_combs: [0, 0, 1, -1], ctildes: [0.47113677880324512, -0.50211465421738755, 0.18996688006116116, -0.19108628449604995, -0.096084714933738144, 0.13052386264477281, 0.019525025848598512, 0.0087772419979322575, -0.94227355760649001, 1.0042293084347749, -0.37993376012232227, 0.38217256899209984, 0.19216942986747626, -0.26104772528954556, -0.039050051697197018, -0.017554483995864512]}
    - {mu0: 0, rank: 2, ndensity: 8, num_ms_combs: 1, mus: [3, 3], ns: [1, 3], ls: [0, 0], ms_combs: [0, 0], ctildes: [0.34153739992820598, -0.26106926001771658, -0.14241071503705199, -0.3894854073935039, -0.044666001127473959, 0.025540930376232004, 0.25350406463898451, -0.1270388209631145]}
    - {mu0: 0, rank: 2, ndensity: 8, num_ms_combs: 1, mus: [3, 3], ns: [2, 2], ls: [0, 0], ms_combs: [0, 0], ctildes: [-0.32209138267099391, -0.4847622916994645, -0.45166612343888851, -0.25579990124739654, -0.26375937138918254, -0.19087523595242772, -0.056908934772910653, 0.49057146483073522]}
    - {mu0: 0, rank: 2, ndensity: 8, num_ms_combs: 1, mus: [3, 3], ns: [2, 3], ls: [0, 0], ms_combs: [0, 0], ctildes: [0.26741702840686821, 0.48939402664246273, 0.39029576187475007, -0.097143337393321885, -0.075903012858611993, 0.1185287464252102, 0.056162934993696685, -0.017669091538633053]}
    - {mu0: 0, rank: 3, ndensity: 8, num_ms_combs: 1, mus: [0, 0, 0], ns: [1, 1, 1], ls: [0, 0, 0], ms_combs: [0, 0, 0], ctildes: [-0.53964525958400733, 0.48848935471359212, 0.87573455672170275, -0.60298450684026916, 0.033840867672855643, -0.081054834766334072, 0.4617446750885274, -0.042426013849459876]}
    - {mu0: 0, rank: 3, ndensity: 8, num_ms_combs: 2, mus: [0, 0, 0], ns: [1, 1, 1], ls: [0, 1, 1], ms_combs: [0, 0, 0, 0, 1, -1], ctildes: [-0.031838326807602929, -0.082499596869567163, 0.10549324844727404, -0.047591179499899487, 0.2370044459619029, 0.021340270226349503, 0.04735769598127882, 0.0048701382806701759, 0.063676653615205844, 0.1649991937391343, -0.21098649689454804, 0.095182358999798961, -0.47400889192380569, -0.042680540452698999, -0.094715391962557627, -0.00974027656134035]}
    - {mu0: 0, rank: 3, ndensity: 8, num_ms_combs: 1, mus: [0, 0, 0], ns: [1, 1, 2], ls: [0, 0, 0], ms_combs: [0, 0, 0], ctildes: [0.15457845220241784, 0.65809927586137462, -1.0360476726830856, -0.20559006895056464, 0.30680538832986393, 0.16208143862693308, 0.075285134890028693, 0.04599419034135388]}
    - {mu0: 0, rank: 3, ndensity: 8, num_ms_combs: 2, mus: [0, 0, 0], ns: [1, 1, 2], ls: [0, 1, 1], ms_combs: [0, 0, 0, 0, 1, -1], ctildes: [0.12259157983653114, 0.066314146478336986, -0.014495089316746557, -0.25325179282506538, -0.0014744052253796418, 0.033362115153139867, -0.27815667135625805, 0.012452523143338255, -0.24518315967306223, -0.13262829295667394, 0.028990178633493107, 0.50650358565013065, 0.0029488104507592833, -0.066724230306279719, 0.55631334271251598, -0.024905046286676506]}
    - {mu0: 0, rank: 3, ndensity: 8, num_ms_combs: 2, mus: [0, 0, 0], ns: [1, 1, 2], ls: [1, 1, 0], ms_combs: [0, 0, 0, 1, -1, 0], ctildes: [-0.05696495616233186, 0.070979102117164211, 0.059489558762328795, -0.47068026371766597, -0.11101241522708799, -0.092584680206819286, -0.011945332300566068, 0.0084810878584282417, 0.11392991232466369, -0.14195820423432839, -0.11897911752465756, 0.94136052743533172, 0.22202483045417593, 0.18516936041363852, 0.023890664601132133, -0.01696217571685648]}
    - {mu0: 0, rank: 3, ndensity: 8, num_ms_combs: 1, mus: [0, 0, 0], ns: [1, 2, 2], ls: [0, 0, 0], ms_combs: [0, 0, 0], ctildes: [-0.76349502931010937, -0.29111678217817821, 0.49761159098349272, 0.34843072247985096, 0.022658044538069334, -0.18763386231339588, 0.77521860252973696, -0.0050990766603505157]}
    - {mu0: 0, rank: 3, ndensity: 8, num_ms_combs: 1, mus: [0, 0, 0], ns: [2, 2, 2], ls: [0, 0, 0], ms_combs: [0, 0, 0], ctildes: [0.23190151651712385, 0.072302322398315022, -0.10361347077841501, -0.16461276897073326, -0.072234407868116343, 0.024837844331888445, -0.20622573913973585, 0.00097640538217719642]}
    - {mu0: 0, rank: 3, ndensity: 8, num_ms_combs: 1, mus: [0, 0, 1], ns: [1, 1, 1], ls: [0, 0, 0], ms_combs: [0, 0, 0], ctildes: [0.029084263259191983, -0.072448189574696537, 0.12160780596435371, -0.17176363555957877, -0.33223592289125947, 0.090876403165829137, 0.18056685412086584, -0.044525579220991415]}
    - {mu0: 0, rank: 3, ndensity: 8, num_ms_combs: 1, mus: [0, 0, 1], ns: [1, 1, 2], ls: [0, 0, 0], ms_combs: [0, 0, 0], ctildes: [-0.019772397791878598, 0.072559421893891696, 0.3313376990496954, 0.12205176428381642, -0.32707558299241535, -0.33214461590844085, -0.079623286285019773, 0.024919230707128769]}
    - {mu0: 0, rank: 3, ndensity: 8, num_ms_combs: 1, mus: [0, 0, 1], ns: [1, 2, 1], ls: [0, 0, 0], ms_combs: [0, 0, 0], ctildes: [-0.30699743968219068, -0.27359409049491246, 0.1140091035569462, -0.28404125475039588, 0.43561705981601812, -0.35451038852609512, 0.32755423836592251, 0.077891117411100136]}
    - {mu0: 0, rank: 3, ndensity: 8, num_ms_combs: 1, mus: [0, 0, 2], ns: [1, 1, 1], ls: [0, 0, 0], ms_combs: [0, 0, 0], ctildes: [0.067695387889103412, 0.71510175549305144, 0.21857390536784563, 0.072226832875932692, -0.40823920290940802, 0.59653446113320219, -0.45199427657477143, -0.0069546522659164108]}
    - {mu0: 0, rank: 3, ndensity: 8, num_ms_combs: 1, mus: [0, 0, 2], ns: [1, 1, 2], ls: [0, 0, 0], ms_combs: [0, 0, 0], ctildes: [-0.15821071401581074, -0.15761180422827714, -0.68747024776277676, -0.2564524938989366, -0.20597013526057864, -0.48661167853497489, 0.1274409201061926, -0.0017743612618012822]}
    - {mu0: 0, rank: 3, ndensity: 8, num_ms_combs: 1, mus: [0, 0, 2], ns: [1, 2, 1], ls: [0, 0, 0], ms_combs: [0, 0, 0], ctildes: [0.22910571040805311, -0.1812400648255868, 0.11873565005829659, 0.36954343479605717, 0.26292809288431623, 0.38373884856639551, -0.18868413358783795, -0.043374290210112951]}
    - {mu0: 0, rank: 3, ndensity: 8, num_ms_combs: 1, mus: [0, 0, 3], ns: [1, 1, 1], ls: [0, 0, 0], ms_combs: [0, 0, 0], ctildes: [-0.14881480906141153, 0.19466291934139573, -0.11712703903511325, -0.35676556369508189, 0.50995313860527824, 0.40826220333485924, -0.23047428962637395, -0.070278795340156616]}
    - {mu0: 0, rank: 3, ndensity: 8, num_ms_combs: 1, mus: [0, 0, 3], ns: [1, 1, 2], ls: [0, 0, 0], ms_combs: [0, 0, 0], ctildes: [-0.051871269386296874, -0.52874408016625596, 0.23073005572874833, -0.048440337446781681, -0.020681463161803974, -0.059046977091747464, 0.22909768181550566, 0.10007822521753723]}
    - {mu0: 0, rank: 3, ndensity: 8, num_ms_combs: 1, mus: [0, 0, 3], ns: [1, 2, 1], ls: [0, 0, 0], ms_combs: [0, 0, 0], ctildes: [0.19968237570857603, 0.18298500653482405, -0.072274302984873695, -0.15155833642479938, -0.29424152851822927, 0.38889173808998256, -0.12407184395847062, 0.28584524164364467]}
    - {mu0: 0, rank: 3, ndensity: 8, num_ms_combs: 1, mus: [0, 1, 1], ns: [1, 1, 1], ls: [0, 0, 0], ms_combs: [0, 0, 0], ctildes: [0.068665350580693049, -0.015639807577561535, 0.086344470483081609, 0.50223891829223699, -0.36798873467729909, 0.2393638304128072, 0.046925294428296419, 0.14099370338722972]}
    - {mu0: 0, rank: 3, ndensity: 8, num_ms_combs: 1, mus: [0, 1, 1], ns: [1, 1, 2], ls: [0, 0, 0], ms_combs: [0, 0, 0], ctildes: [0.21758267469707462, -0.0035023316612732064, -0.079103336298480667, -0.15780627422311808, -0.28987501244778818, -0.020233400563818595, 0.091001824518994232, 0.051321911799567826]}
    - {mu0: 0, rank: 3, ndensity: 8, num_ms_combs: 1, mus: [0, 1, 1], ns: [2, 1, 1], ls: [0, 0, 0], ms_combs: [0, 0, 0], ctildes: [-0.12265774891468383, 0.10459737673195414, 0.46923912300376991, 0.042733850708788601, 0.3774203352550991, 0.099980874440720666, -0.045221512121791374, -0.01269743772524768]}
    - {mu0: 0, rank: 3, ndensity: 8, num_ms_combs: 1, mus: [0, 1, 2], ns: [1, 1, 1], ls: [0, 0, 0], ms_combs: [0, 0, 0], ctildes: [0.41914370514155863, 0.22978573737990779, 0.50488355718156175, -0.97040034128340225, -0.075562128139632909, 0.10920550994573409, 0.61069207822306837, -0.25908464125313474]}
    - {mu0: 0, rank: 3, ndensity: 8, num_ms_combs: 2, mus: [0, 1, 2], ns: [1, 1, 1], ls: [0, 1, 1], ms_combs: [0, 0, 0, 0, 1, -1], ctildes: [-0.033695451101521147, -0.077440242319950905, -0.044613401290830634, -0.025164670257552153, -0.30005545110596943, -0.098586572630780953, 0.041204501667175701, 0.0028471226096992144, 0.06739090220304228, 0.15488048463990178, 0.089226802581661241, 0.0503293405151043, 0.60011090221193875, 0.19717314526156188, -0.082409003334351388, -0.0056942452193984279]}
    - {mu0: 0, rank: 3, ndensity: 8, num_ms_combs: 2, mus: [0, 1, 2], ns: [1, 1, 1], ls: [1, 0, 1], ms_combs: [0, 0, 0, 1, 0, -1], ctildes: [0.72978860243644661, 0.20869866242101717, 0.27120613037337638, 0.082638892463417837, -0.48495850663795786, 0.078168443305671992, 0.4058338292225579, -0.24701819107548725, -1.459577204872893, -0.41739732484203429, -0.54241226074675264, -0.16527778492683562, 0.96991701327591551, -0.15633688661134396, -0.81166765844511557, 0.4940363821509744]}
    - {mu0: 0, rank: 3, ndensity: 8, num_ms_combs: 2, mus: [0, 1, 2], ns: [1, 1, 1], ls: [1, 1, 0], ms_combs: [0, 0, 0, 1, -1, 0], ctildes: [0.084306157377759511, -0.086162553481008167, 0.1153071892379815, -0.39043888588521652, 0.021659026975274186, 0.23019739827055205, -0.04515403055285333, -0.032266444297744723, -0.16861231475551899, 0.17232510696201631, -0.23061437847596294, 0.78087777177043283, -0.043318053950548364, -0.46039479654110399, 0.090308061105706647, 0.064532888595489432]}
    - {mu0: 0, rank: 3, ndensity: 8, num_ms_combs: 1, mus: [0, 1, 2], ns: [1, 1, 2], ls: [0, 0, 0], ms_combs: [0, 0, 0], ctildes: [-0.65759859191469361, -0.17023816486728946, -0.67345247422603116, -0.49727209467849698, -0.20385937897358447, 0.20365590851935877, -0.39427706593903405, 0.26403988094607883]}
    - {mu0: 0, rank: 3, ndensity: 8, num_ms_combs: 1, mus: [0, 1, 2], ns: [1, 2, 1], ls: [0, 0, 0], ms_combs: [0, 0, 0], ctildes: [0.083959451325560208, -0.1180659647755823, 0.073046055927030368, -0.52159742106332008, -0.40385569030756097, -0.2872200849457201, -0.14557199025024092, -0.0020706350613284999]}
    - {mu0: 0, rank: 3, ndensity: 8, num_ms_combs: 1, mus: [0, 1, 2], ns: [1, 2, 2], ls: [0, 0, 0], ms_combs: [0, 0, 0], ctildes: [-0.02177503931053185, -0.034842238989779922, 0.12221598475705348, -0.1258107386506665, 0.3589190925572493, -0.32335736902126505, 0.12693261078335755, 0.032115985059921533]}
    - {mu0: 0, rank: 3, ndensity: 8, num_ms_combs: 1, mus: [0, 1, 2], ns: [2, 1, 1], ls: [0, 0, 0], ms_combs: [0, 0, 0], ctildes: [0.078758714218717579, 0.020678428278772143, -0.20041382598979204, 0.23039689222242352, 0.077681442983988699, -0.52608916491462077, 0.8235721067857954, -0.070935656151017892]}
    - {mu0: 0, rank: 3, ndensity: 8, num_ms_combs: 1, mus: [0, 1, 2], ns: [2, 1, 2], ls: [0, 0, 0], ms_combs: [0, 0, 0], ctildes: [-0.20495825761891426, 0.21530162342634077, -0.38662816788695037, -0.096697098860920178, 0.058070881423541582, -0.14821317182161881, -0.0069259442576057127, -0.047806132597158768]}
    - {mu0: 0, rank: 3, ndensity: 8, num_ms_combs: 1, mus: [0, 1, 3], ns: [1, 1, 1], ls: [0, 0, 0], ms_combs: [0, 0, 0], ctildes: [0.21489703019504769, -0.0056823984093775492, 0.022502692504455038, 0.01587259119423989, 0.49798266740293895, -0.026114832724954313, 0.1339882139416099, 0.17565769197065836]}
    - {mu0: 0, rank: 3, ndensity: 8, num_ms_combs: 2, mus: [0, 1, 3], ns: [1, 1, 1], ls: [0, 1, 1], ms_combs: [0, 0, 0, 0, 1, -1], ctildes: [0.24090240532680615, 0.03077536046497473, 0.078976010866341401, 0.011141977620522429, -0.20223876989710607, 0.018618984132385576, 0.13954894354813682, -0.065243215140461247, -0.48180481065361225, -0.061550720929949447, -0.15795202173268277, -0.022283955241044855, 0.40447753979421203, -0.037237968264771146, -0.27909788709627359, 0.13048643028092247]}
    - {mu0: 0, rank: 3, ndensity: 8, num_ms_combs: 2, mus: [0, 1, 3], ns: [1, 1, 1], ls: [1, 0, 1], ms_combs: [0, 0, 0, 1, 0, -1], ctildes: [-0.12117215909640522, -0.012380041012553239, 0.016763985265052451, -0.022089752744167569, 0.037910408091917591, -0.045061380325739288, -0.053797216426582181, 0.049110483721991539, 0.24234431819281038, 0.024760082025106472, -0.033527970530104895, 0.04417950548833513, -0.075820816183835169, 0.090122760651478562, 0.10759443285316435, -0.098220967443983051]}
    - {mu0: 0, rank: 3, ndensity: 8, num_ms_combs: 2, mus: [0, 1, 3], ns: [1, 1, 1], ls: [1, 1, 0], ms_combs: [0, 0, 0, 1, -1, 0], ctildes: [-0.031021158312046285, 0.0090508748344580708, 0.00039543912589696563, -0.010387526296145746, 0.07724918338469515, 0.0021774668050236986, -0.022740364764515322, 0.097691111247676904, 0.062042316624092562, -0.018101749668916138, -0.00079087825179393115, 0.020775052592291489, -0.15449836676939027, -0.0043549336100473963, 0.045480729529030636, -0.19538222249535375]}
    - {mu0: 0, rank: 3, ndensity: 8, num_ms_combs: 1, mus: [0, 1, 3], ns: [1, 1, 2], ls: [0, 0, 0], ms_combs: [0, 0, 0], ctildes: [-0.16053790143981306, 0.00078517105318540398, -0.019853292984150717, 0.063383307160187849, -0.58580528084917782, 0.0949317929764706, -0.10361436530803329, -0.21991813654841461]}
    - {mu0: 0, rank: 3, ndensity: 8, num_ms_combs: 1, mus: [0, 1, 3], ns: [1, 2, 1], ls: [0, 0, 0], ms_combs: [0, 0, 0], ctildes: [-0.014721775560279253, 0.020595677913179476, -0.015891126426386577, 0.01027025914332287, 0.20985179724446357, -0.051521401794236837, -0.0037718344887961233, -0.16751195597943644]}
    - {mu0: 0, rank: 3, ndensity: 8, num_ms_combs: 1, mus: [0, 1, 3], ns: [1, 2, 2], ls: [0, 0, 0], ms_combs: [0, 0, 0], ctildes: [-0.072969661958597304, -0.026632989159059647, -0.026008337065512956, -0.15281375801958766, -0.52424021211359029, 0.14869869038781899, -0.050404178836780153, -0.10287387429500509]}
    - {mu0: 0, rank: 3, ndensity: 8, num_ms_combs: 1, mus: [0, 1, 3], ns: [2, 1, 1], ls: [0, 0, 0], ms_combs: [0, 0, 0], ctildes: [-0.076294512634995107, -0.044366637619557663, 0.012637423127975493, 0.028496663735579016, 0.43306618877487024, -0.10256207624123269, -0.0090522098065543774, -0.40011644628696941]}
    - {mu0: 0, rank: 3, ndensity: 8, num_ms_combs: 1, mus: [0, 1, 3], ns: [2, 1, 2], ls: [0, 0, 0], ms_combs: [0, 0, 0], ctildes: [0.0057594074074604588, -0.0065166495856414861, -0.066440337053535234, -0.041275892038323353, 0.01766195645831781, 0.044714484650118132, -0.027637058233452323, -0.10440779303985237]}
    - {mu0: 0, rank: 3, ndensity: 8, num_ms_combs: 1, mus: [0, 2, 2], ns: [1, 1, 1], ls: [0, 0, 0], ms_combs: [0, 0, 0], ctildes: [0.22354612742080449, -0.28700375186416638, -0.63294293449794881, -0.16717427580578906, -0.073179693739800211, -0.27159190916687609, -0.14567659134341052, 0.042049471708999517]}
    - {mu0: 0, rank: 3, ndensity: 8, num_ms_combs: 1, mus: [0, 2, 2], ns: [1, 1, 2], ls: [0, 0, 0], ms_combs: [0, 0, 0], ctildes: [-0.38081006871662632, -0.16155283200248213, 1.0334853236939394, -0.29474302557428173, -0.0082007637128087962, -0.24218315872067137, -0.18017994752427671, -0.0023123022512280631]}
    - {mu0: 0, rank: 3, ndensity: 8, num_ms_combs: 1, mus: [0, 2, 2], ns: [2, 1, 1], ls: [0, 0, 0], ms_combs: [0, 0, 0], ctildes: [0.01204491447174082, 0.34611649800222904, 0.32091418899072949, -0.1671733694115721, -0.074998530342845329, 0.088047343781729084, 0.21138129840399572, -0.01536976508655279]}
    - {mu0: 0, rank: 3, ndensity: 8, num_ms_combs: 1, mus: [0, 2, 3], ns: [1, 1, 1], ls: [0, 0, 0], ms_combs: [0, 0, 0], ctildes: [-0.55560756798793043, 0.14435559122333252, 0.11973175005114664, 0.65727959060312846, -0.51622359421209829, 0.20186586071212401, -0.58220097094749768, -0.50615927005028438]}
    - {mu0: 0, rank: 3, ndensity: 8, num_ms_combs: 2, mus: [0, 2, 3], ns: [1, 1, 1], ls: [0, 1, 1], ms_combs: [0, 0, 0, 0, 1, -1], ctildes: [-0.26332351328479287, -0.028528318832015342, -0.027614371251808954, -0.36941162939020633, 0.1829813899578398, -0.0084161493971022898, -0.18334014108150354, 0.04318585774433642, 0.52664702656958562, 0.057056637664030671, 0.055228742503617895, 0.73882325878041255, -0.36596277991567955, 0.016832298794204576, 0.36668028216300697, -0.086371715488672826]}
    - {mu0: 0, rank: 3, ndensity: 8, num_ms_combs: 2, mus: [0, 2, 3], ns: [1, 1, 1], ls: [1, 0, 1], ms_combs: [0, 0, 0, 1, 0, -1], ctildes: [0.28893175253351172, -0.10895759230223746, -0.041907320823519584, -0.53030573744381981, -0.27205271653934732, -0.053071702451129972, 0.21878276564662902, -0.064384618824654599, -0.57786350506702333, 0.2179151846044749, 0.083814641647039154, 1.0606114748876394, 0.54410543307869452, 0.10614340490225992, -0.43756553129325793, 0.12876923764930917]}
    - {mu0: 0, rank: 3, ndensity: 8, num_ms_combs: 2, mus: [0, 2, 3], ns: [1, 1, 1], ls: [1, 1, 0], ms_combs: [0, 0, 0, 1, -1, 0], ctildes: [-0.23237108131139181, 0.032118484385200478, -0.030366284725929331, -0.46208248495537002, 0.18957823811617516, 0.090293077735445704, -0.15898661047017254, -0.09714336517111255, 0.46474216262278356, -0.064236968770400943, 0.060732569451858648, 0.92416496991073982, -0.37915647623235027, -0.18058615547089138, 0.31797322094034502, 0.19428673034222504]}
    - {mu0: 0, rank: 3, ndensity: 8, num_ms_combs: 1, mus: [0, 2, 3], ns: [1, 1, 2], ls: [0, 0, 0], ms_combs: [0, 0, 0], ctildes: [-0.25913506287816679, -0.5086739329849046, -0.50108983690431719, -1.0471651236857036, 0.64217617278360939, -0.33100273341017916, 0.36616690004797547, -0.24282246543892919]}
    - {mu0: 0, rank: 3, ndensity: 8, num_ms_combs: 1, mus: [0, 2, 3], ns: [1, 2, 1], ls: [0, 0, 0], ms_combs: [0, 0, 0], ctildes: [-0.30194906371309138, -0.20619860850252664, -0.23342326797679452, -0.20152879178928201, -0.52382160419047274, 0.2738587023103855, -0.28422498439661498, 0.47289978816119826]}
    - {mu0: 0, rank: 3, ndensity: 8, num_ms_combs: 1, mus: [0, 2, 3], ns: [1, 2, 2], ls: [0, 0, 0], ms_combs: [0, 0, 0], ctildes: [-0.23036705053377829, 0.17699393017213902, 0.27851832562819556, 0.26223569346121112, -0.28493650659181124, 0.31399216814702124, 0.07778613394606021, 0.23504558171088724]}
    - {mu0: 0, rank: 3, ndensity: 8, num_ms_combs: 1, mus: [0, 2, 3], ns: [2, 1, 1], ls: [0, 0, 0], ms_combs: [0, 0, 0], ctildes: [-0.023121249894417092, -0.054011371440824588, 0.22580658352306554, 0.24771778455962362, 0.16806101016340194, -0.17949276334093911, -0.59097867353253997, -0.056311114457312461]}
    - {mu0: 0, rank: 3, ndensity: 8, num_ms_combs: 1, mus: [0, 2, 3], ns: [2, 1, 2], ls: [0, 0, 0], ms_combs: [0, 0, 0], ctildes: [-0.23008042534841214, -0.041778000596503134, -0.085518055864597042, 0.57396939398465341, -0.15196723437291068, 0.13796106047104711, 0.49980896912107359, -0.028397662957733948]}
    - {mu0: 0, rank: 3, ndensity: 8, num_ms_combs: 1, mus: [0, 3, 3], ns: [1, 1, 1], ls: [0, 0, 0], ms_combs: [0, 0, 0], ctildes: [-0.25745858885371076, -0.10031498832547123, -0.03200821528809026, -0.21508864812890247, -0.017172848549853917, 0.21378686608008979, -0.16316762316421046, -1.2375094513718048]}
    - {mu0: 0, rank: 3, ndensity: 8, num_ms_combs: 1, mus: [0, 3, 3], ns: [1, 1, 2], ls: [0, 0, 0], ms_combs: [0, 0, 0], ctildes: [-0.01265091751057717, 0.069956639928942715, -0.1024218090937702, 0.017175561982176867, -0.099311246726961039, -0.21382212575225804, 0.010952314815030563, -0.62483646391291581]}
    - {mu0: 0, rank: 3, ndensity: 8, num_ms_combs: 1, mus: [0, 3, 3], ns: [2, 1, 1], ls: [0, 0, 0], ms_combs: [0, 0, 0], ctildes: [-0.045753754044965407, -0.1347143703460007, 0.048983287859202133, -0.13022666954102008, -0.38664656892998228, -0.0050179446415230681, -0.033231418742339189, 0.023336850975644554]}
    - {mu0: 0, rank: 3, ndensity: 8, num_ms_combs: 1, mus: [1, 1, 1], ns: [1, 1, 1], ls: [0, 0, 0], ms_combs: [0, 0, 0], ctildes: [-0.085918646304230753, -0.0015694445619246255, -0.35107999363938353, -0.72277993282880915, 0.044538716877320042, -0.18834316584384067, -0.12831685756806777, 0.041940011127169517]}
    - {mu0: 0, rank: 3, ndensity: 8, num_ms_combs: 1, mus: [1, 1, 2], ns: [1, 1, 1], ls: [0, 0, 0], ms_combs: [0, 0, 0], ctildes: [0.27840529714674966, -0.044077188952156461, 0.26355216527837, -0.9366520472823483, 0.028634714660730188, 0.077911016266841618, 0.26772700346518363, 0.0041588685214490285]}
    - {mu0: 0, rank: 3, ndensity: 8, num_ms_combs: 1, mus: [1, 1, 2], ns: [1, 1, 2], ls: [0, 0, 0], ms_combs: [0, 0, 0], ctildes: [-0.13968804414099911, -0.089765846408411551, 0.2610402365818007, 0.50720618332307621, -0.050328079299014325, -0.1628067755702727, -0.090873311945232321, -0.077302870545965768]}
    - {mu0: 0, rank: 3, ndensity: 8, num_ms_combs: 1, mus: [1, 1, 2], ns: [1, 2, 1], ls: [0, 0, 0], ms_combs: [0, 0, 0], ctildes: [-0.3887585217003483, 0.2068546356332043, 0.40020599956390462, 0.21876085436595466, 0.44788010588720562, -0.080786754309619513, -0.32108261018978712, 0.013947510900727753]}
    - {mu0: 0, rank: 3, ndensity: 8, num_ms_combs: 1, mus: [1, 1, 3], ns: [1, 1, 1], ls: [0, 0, 0], ms_combs: [0, 0, 0], ctildes: [0.0042234531601965837, 0.00057754096459242143, -0.10471589242329381, -0.022906199617545538, 0.059833785850549243, -0.045461678678520502, 0.0029440471285520275, 0.25471178089461682]}
    - {mu0: 0, rank: 3, ndensity: 8, num_ms_combs: 1, mus: [1, 1, 3], ns: [1, 1, 2], ls: [0, 0, 0], ms_combs: [0, 0, 0], ctildes: [0.056673236316065079, -0.022305856262131829, 0.15041612875621102, -0.073959032815323511, 0.43120309297152354, 0.089284475396406812, 0.034006007947612001, -0.081111147997329491]}
    - {mu0: 0, rank: 3, ndensity: 8, num_ms_combs: 1, mus: [1, 1, 3], ns: [1, 2, 1], ls: [0, 0, 0], ms_combs: [0, 0, 0], ctildes: [0.041905254562369966, -0.007931167549020221, 0.089203033866914458, 0.009532139674260939, -0.15016691684372541, 0.044613840666216133, 0.017759606350886494, 0.13009455770894818]}
    - {mu0: 0, rank: 3, ndensity: 8, num_ms_combs: 1, mus: [1, 2, 2], ns: [1, 1, 1], ls: [0, 0, 0], ms_combs: [0, 0, 0], ctildes: [0.33980614599700892, 0.080791277746878637, 0.081592205642244134, -0.85817547891371515, -0.21315772779017431, 0.16014064158922964, 0.56608089312798837, -0.12707715680701384]}
    - {mu0: 0, rank: 3, ndensity: 8, num_ms_combs: 1, mus: [1, 2, 2], ns: [1, 1, 2], ls: [0, 0, 0], ms_combs: [0, 0, 0], ctildes: [-0.29953931003758522, -0.24383483601491687, 0.14538732781418531, -0.21528683067552415, 0.12330764565612101, -0.28609536644525763, -0.43028245933947973, 0.16830290413069124]}
    - {mu0: 0, rank: 3, ndensity: 8, num_ms_combs: 1, mus: [1, 2, 2], ns: [2, 1, 1], ls: [0, 0, 0], ms_combs: [0, 0, 0], ctildes: [0.049201184432070957, 0.27982005631025153, 0.09695920992874825, -0.66448765575008029, 0.027444536579452665, 0.31570342311845062, 0.097300847208576971, 0.0010445310389845153]}
    - {mu0: 0, rank: 3, ndensity: 8, num_ms_combs: 1, mus: [1, 2, 3], ns: [1, 1, 1], ls: [0, 0, 0], ms_combs: [0, 0, 0], ctildes: [-0.031351207009750914, -0.3513067170300368, -0.28875093889390241, 0.25050456001580312, -0.37414932563327147, -0.27769268575595696, -0.049285935135273726, -0.024370801558803345]}
    - {mu0: 0, rank: 3, ndensity: 8, num_ms_combs: 2, mus: [1, 2, 3], ns: [1, 1, 1], ls: [0, 1, 1], ms_combs: [0, 0, 0, 0, 1, -1], ctildes: [0.31158514134217169, 0.018233788047078134, 0.1157347811350799, -0.66684446220221172, 0.33168089308111631, 0.023491166885310454, 0.10955342735593068, -0.084162885931152814, -0.62317028268434327, -0.036467576094156261, -0.23146956227015977, 1.3336889244044232, -0.66336178616223251, -0.046982333770620902, -0.21910685471186134, 0.1683257718623056]}
    - {mu0: 0, rank: 3, ndensity: 8, num_ms_combs: 3, mus: [1, 2, 3], ns: [1, 1, 1], ls: [0, 2, 2], ms_combs: [0, 0, 0, 0, 1, -1, 0, 2, -2], ctildes: [-0.021556914987421235, 0.046663334379352092, 0.020654550521746001, -0.00981314427548996, 0.020419334081778047, -0.039977874977763055, -0.039366810352041808, 0.0075054532014741469, 0.043113829974842477, -0.093326668758704198, -0.041309101043492009, 0.019626288550979924, -0.040838668163556101, 0.079955749955526123, 0.078733620704083615, -0.015010906402948295, -0.043113829974842484, 0.093326668758704226, 0.041309101043492016, -0.019626288550979927, 0.040838668163556115, -0.079955749955526137, -0.078733620704083643, 0.015010906402948299]}
    - {mu0: 0, rank: 3, ndensity: 8, num_ms_combs: 2, mus: [1, 2, 3], ns: [1, 1, 1], ls: [1, 0, 1], ms_combs: [0, 0, 0, 1, 0, -1], ctildes: [0.150618414195232, -0.0085067919211174511, 0.18844346374766358, 0.41294102915341585, 0.31742034301401151, -0.065846124963223368, 0.10246407945009253, -0.18502811558083021, -0.30123682839046395, 0.017013583842234899, -0.37688692749532704, -0.82588205830683159, -0.6348406860280229, 0.13169224992644671, -0.20492815890018501, 0.37005623116166037]}
    - {mu0: 0, rank: 3, ndensity: 8, num_ms_combs: 2, mus: [1, 2, 3], ns: [1, 1, 1], ls: [1, 1, 0], ms_combs: [0, 0, 0, 1, -1, 0], ctildes: [-0.084676519358524993, 0.0084827091628029705, 0.013874593051818927, 0.011049043542677125, 0.010939461395286709, 0.0050017104471958571, -0.054958505197716535, -0.0069420799720266132, 0.16935303871704996, -0.016965418325605938, -0.02774918610363785, -0.022098087085354247, -0.021878922790573414, -0.010003420894391712, 0.10991701039543306, 0.013884159944053223]}
    - {mu0: 0, rank: 3, ndensity: 8, num_ms_combs: 5, mus: [1, 2, 3], ns: [1, 1, 1], ls: [1, 1, 2], ms_combs: [0, 0, 0, 0, 1, -1, 1, -1, 0, 1, 0, -1, 1, 1, -2], ctildes: [0.024511520009100871, 0.048202003872196558, 0.015906500447490264, 0.021050829483992121, 0.1857443093481915, -0.0067444775089362469, 0.039305791131157106, -0.034939499352334501, -0.042455198026503868, -0.083488319733276223, -0.027550866945670226, -0.036461106207743295, -0.32171858100785855, 0.011681777715983161, -0.068079627270854301, 0.060516988069263256, 0.024511520009100875, 0.048202003872196565, 0.015906500447490268, 0.021050829483992121, 0.18574430934819153, -0.0067444775089362478, 0.039305791131157113, -0.034939499352334508, -0.042455198026503868, -0.083488319733276223, -0.027550866945670226, -0.036461106207743295, -0.32171858100785855, 0.011681777715983161, -0.068079627270854301, 0.060516988069263256, 0.060040716842317238, 0.11807031406654055, 0.038962809689703448, 0.05156379089811642, 0.45497878052874086, -0.016520528478571186, 0.096279132207747392, -0.085583945281522897]}
